34 100
1 -0.042475913 0.052065708 0.15372874 0.0335041 -0.22378235 -0.20596047 0.084459044 0.29216167 -0.1385783 -0.31656015 0.073938906 -0.06683658 -0.073651396 0.08047243 0.042373274 0.036122885 0.23060517 -0.06583292 -0.036877383 -0.3140069 0.09636375 0.032048058 0.22534443 0.12760043 -0.049176555 0.1599864 -0.18786326 0.039078016 -0.018228546 0.063359745 0.17667592 -0.056104615 0.108632214 -0.30893925 0.07616951 -0.056025553 0.17216222 0.025972733 -0.055066697 -0.05935424 -0.02441335 -0.03286821 -0.15351298 0.057713874 -0.025254585 -0.289105 -0.17960587 0.07787551 0.09230254 0.101663835 0.014777633 0.016891941 -0.10924714 -0.0090108765 0.04153669 0.025259037 0.03486654 -0.090138294 0.06613062 0.08933641 -0.107392445 -3.258715e-05 0.18925245 0.10294708 -0.103540055 0.21149144 -0.0025772417 0.047451586 -0.07787697 0.01883019 0.11675678 0.2732496 -0.084100164 -0.029237842 0.21612918 0.08747594 0.08463053 0.10326603 0.026305238 -0.122759156 -0.15501687 -0.023799423 0.26802155 0.16185528 -0.13006203 -0.031938877 0.18179789 0.09895726 -0.07661143 0.07883033 0.22026962 -0.0478616 0.07294996 0.04930999 0.18476991 -0.04946649 0.07996227 -0.12847938 0.00078347244 0.13901074
34 -0.17208041 0.057627574 -0.050577287 0.2816856 0.23936181 -0.15023758 0.08844166 0.2086291 -0.053158615 -0.09543313 0.13736324 -0.3511892 0.13482589 0.10917558 0.07402169 0.061777312 0.24228245 -0.14228079 -0.03911242 -0.2983084 0.20316157 0.037641622 0.17258646 -0.16211277 0.12064749 -0.06645338 -0.10047986 0.22437441 -0.105653204 -0.07835308 0.2865765 -0.14316072 0.096951276 -0.06670118 -0.10513015 0.11717745 0.26075047 0.19772546 0.0075730695 0.2294454 0.099591024 -0.12479486 -0.13357554 0.031021925 0.090334 0.099566065 -0.077661276 -0.023208186 0.08221459 0.18713851 0.14878216 -0.032750815 -0.0031415657 0.07470409 -0.086818054 -0.016683217 0.25119308 0.08582127 -0.07101552 0.16267201 -0.15548062 -0.028531216 0.23240447 -0.038028676 -0.20991549 0.06434769 -0.08732085 0.013263144 0.081553474 0.08852327 0.041632753 -0.028615473 0.1700473 0.0718205 0.07319345 -0.21067367 0.05985753 0.025039319 0.019723585 -0.015180918 -0.22349249 -0.06980811 -0.08000452 0.07188943 -0.053493515 -0.055836607 -0.047430884 -0.16143966 0.23383117 0.08604437 -0.055144124 0.2035512 0.16185309 -0.08477548 0.32434258 0.081254646 0.07045845 -0.037738208 -0.018559225 -0.022351712
33 -0.19044498 0.09944714 -0.09415673 0.2725698 0.22465642 -0.103000596 0.06962719 0.19708511 -0.09818135 -0.048668187 0.09774857 -0.31769437 0.1888721 0.046007443 0.07488941 0.051790204 0.2867169 -0.13024482 -0.06549501 -0.29734945 0.14173098 0.011942163 0.14472893 -0.20206541 0.09848439 -0.075348444 -0.07955851 0.26935282 -0.1062171 -0.033418063 0.3068575 -0.16205236 0.07946753 -0.06319274 -0.13611697 0.11548728 0.26107973 0.20187822 -0.0065966854 0.27900892 0.106881805 -0.10007908 -0.11251199 0.067173384 0.11930969 0.08946942 -0.041343257 -0.0461491 0.06062022 0.13103178 0.13059038 0.0052086147 -0.026292918 0.02803975 -0.1460973 -0.043443784 0.2136458 0.08821016 -0.05896997 0.14149916 -0.09870462 -0.07047168 0.26667002 0.0056319083 -0.21539277 0.062264405 -0.05154499 0.03912766 0.023699509 0.08733607 0.021309651 -0.059869338 0.19915636 0.0779008 0.028493287 -0.17311552 0.068758115 0.042764597 0.014702933 -0.010050251 -0.22218113 -0.107651524 -0.10366804 0.104355685 -0.057408266 -0.10518223 -0.059966177 -0.10993543 0.284173 0.06286903 -0.092478864 0.2038493 0.17340475 -0.110520676 0.32344478 0.04346187 0.09749658 0.011296056 0.07259217 -0.05857827
3 -0.12173723 0.048187215 0.098304756 0.11181549 -0.0023437918 -0.19604722 0.1128096 0.2598279 -0.098384194 -0.2333595 0.2036145 -0.24048258 0.08759216 0.04525505 0.055260353 0.04843624 0.1713664 -0.18774636 -0.05222572 -0.28846094 0.12183976 0.03401139 0.27189493 0.00748142 -0.06691208 0.027898654 -0.013567126 0.09775023 -0.060129214 -0.06075603 0.21350138 -0.12929146 0.07012622 -0.17505507 0.032641545 0.089999594 0.31031415 0.105588816 -0.091116324 0.14956762 0.111615814 -0.097237594 -0.22496915 0.023165911 0.102715485 -0.06502034 -0.14038587 0.08108738 0.03077483 0.13153459 0.11647434 0.029020457 0.011092447 0.040002577 -0.06838003 -0.03232233 0.123539664 -0.020955518 -0.019656004 0.027860465 -0.14897975 -0.032393448 0.19837391 -0.016502244 -0.18662186 0.114399195 -0.16862541 0.018045422 0.026673684 0.020389564 0.087824 0.19928706 0.050376583 0.09607821 0.07873444 -0.050165627 0.07854851 0.017520012 0.06283431 0.0012408878 -0.14818905 -0.05177269 0.12329097 0.01521506 -0.15247537 -0.0754424 -0.0007925659 0.003194914 0.092890196 0.12393788 0.08449701 0.079664774 0.06273262 0.0070795165 0.30639294 0.049656894 0.08188868 -0.13833931 -0.01271539 -0.07866852
2 -0.116672896 0.041543953 0.17883416 0.015120922 -0.19804162 -0.20212871 0.12453383 0.28384933 -0.16099423 -0.28473303 0.19906265 -0.15751448 0.033856206 0.014639764 0.012555729 0.03338732 0.15151177 -0.19891524 -0.038408916 -0.32685313 0.078794025 0.02251459 0.36036238 0.10384804 -0.17560664 0.09546087 -0.012755499 0.042983428 -0.045270927 -0.023418657 0.21986529 -0.11261302 0.097008824 -0.28274146 0.11245999 0.024727924 0.32239896 0.06291427 -0.13708878 0.06851735 0.10826973 -0.0831334 -0.2957462 0.037178464 0.10116249 -0.21789834 -0.18117929 0.14968874 0.033039235 0.08147214 0.08090132 0.08582373 0.046757072 0.02467802 -0.058576938 -0.0532318 0.032021854 -0.113401264 0.014921855 -0.045882903 -0.11150336 -0.061228573 0.18966046 0.016792405 -0.19058949 0.15795293 -0.16225317 0.041104816 -0.04088632 0.034339827 0.08776272 0.36538824 -0.0195466 0.08455224 0.1139461 0.07642974 0.09588093 0.038103294 0.095626466 -0.032165598 -0.120711155 -0.08917516 0.26269075 0.022783438 -0.23168346 -0.12223834 0.036241867 0.11976158 -0.03176337 0.1563177 0.21757762 -0.010693348 0.00732905 0.0313234 0.28709146 -0.0034888408 0.100042164 -0.15675701 0.025172854 -0.06510032
4 -0.0911638 0.035219204 0.222471 -0.0015208032 -0.22541118 -0.2311542 0.13563706 0.30803207 -0.15445776 -0.3448887 0.22722153 -0.1809744 0.029524814 0.01380612 0.020759812 0.032761235 0.13040431 -0.21436583 -0.051919967 -0.31751633 0.059624013 0.04164699 0.36100566 0.12907189 -0.18226074 0.10447639 0.002624187 0.007807452 -0.030943494 -0.02129333 0.18908851 -0.13132992 0.086957194 -0.29271394 0.115018606 0.046207864 0.34410605 0.050277874 -0.13844737 0.055122517 0.10801906 -0.08040759 -0.32349452 0.020584691 0.08247631 -0.21786998 -0.200395 0.16933046 0.007993034 0.10677037 0.081899256 0.05766333 0.031162275 0.036218062 -0.047776937 -0.03594736 0.045758426 -0.124800496 0.013195563 -0.044051558 -0.1454362 -0.048931416 0.1866386 -0.00018342116 -0.18498468 0.17941889 -0.20515057 0.019807177 -0.032405864 -0.0003381836 0.120705634 0.40068665 -0.019483175 0.08665854 0.10798451 0.08857137 0.093545064 0.008026426 0.091712356 -0.011145925 -0.10145828 -0.06804428 0.29451817 -0.006957804 -0.23445924 -0.10505088 0.030493423 0.112975456 -0.022021785 0.17653327 0.23369947 -0.0047460627 -0.0131010115 0.057670023 0.29581314 0.024859853 0.084204875 -0.20219061 0.010436664 -0.08199097
32 0.034491755 -0.010865793 -0.026538383 0.27834275 0.2961827 -0.040608764 0.13596071 0.19872487 -0.026156886 -0.09069788 -0.019928299 -0.3008941 0.037698418 0.30608785 0.070278555 0.012928702 0.091533765 0.08552036 -0.03258778 -0.34208035 0.27021983 0.10577113 0.045290973 -0.020480637 0.165367 0.012418568 -0.13519926 -0.062456314 -0.1524573 -0.1040967 0.26767644 -0.1295693 0.028414039 -0.10394663 -0.13799043 0.1075223 0.01767239 0.2199719 0.01139086 -0.1703307 0.039390896 -0.1752852 -0.054126844 0.12770782 0.037171472 0.0008999375 -0.23713754 -0.1858949 0.173597 0.20480023 0.09245377 -0.22482303 -0.04389297 -0.005388626 0.0015353905 0.07755624 0.13775934 -0.0986394 -0.16925374 0.054312196 -0.12370666 0.035231143 0.25304914 0.008466364 -0.21651334 0.24878855 -0.07013171 0.06697203 0.084090754 0.05187662 0.09801925 0.041258782 0.047908362 0.050034907 0.2376545 -0.15558285 0.14194678 0.094047055 -0.041857034 -0.087465584 -0.20794658 -0.12526558 -0.13866484 -0.0014073909 0.0065844962 0.06389001 0.12299926 -0.27319285 0.0018058592 0.05036962 0.007293183 0.16280492 0.22692068 0.05105575 0.22178338 0.14097191 0.0026855348 -0.058513727 -0.14384347 0.14821976
14 -0.06699048 0.04777855 0.110220425 0.106548004 -0.09854177 -0.18092199 0.112563126 0.24674822 -0.1309314 -0.25639877 0.1432065 -0.1714909 0.0685078 0.04943582 0.042462677 0.052753523 0.22262345 -0.14386429 -0.047986332 -0.31548125 0.09094445 0.033634808 0.23263632 0.023362383 -0.06341505 0.083228596 -0.09441455 0.0878876 -0.049171437 0.005534384 0.22426118 -0.09078815 0.08481641 -0.23716371 0.029949926 0.030626833 0.24017632 0.07856699 -0.082900055 0.078514345 0.07685106 -0.08476608 -0.17972854 0.044188157 0.07618541 -0.15865561 -0.16171283 0.06044496 0.060947195 0.10113728 0.059165653 0.03543833 -0.029827047 0.0059493277 -0.044944525 -0.008448218 0.061397016 -0.042912383 0.011706783 0.057879083 -0.10531075 -0.04863348 0.20405531 0.06861069 -0.16108392 0.15833504 -0.12981425 0.033261366 -0.030268101 0.0132424515 0.08499579 0.20898633 0.02390288 0.046201084 0.11509718 -0.0007454262 0.08208577 0.05417419 0.06211367 -0.04730803 -0.15418923 -0.07449126 0.14895967 0.08435763 -0.13322811 -0.08408359 0.07322067 0.0627366 0.06732679 0.09985675 0.12118641 0.0287376 0.056555036 0.02887774 0.25206473 -0.012541087 0.07899398 -0.11670761 0.028519997 -0.017967088
24 -0.064756334 -0.00019640558 -0.08549836 0.35486048 0.3924086 -0.039841887 0.15210041 0.16407979 -0.04288565 -0.013272639 0.047062002 -0.39656404 0.15342823 0.25632328 0.08998697 0.018526444 0.0842239 -0.019503174 -0.042915266 -0.34577197 0.268382 0.109506354 0.08509869 -0.14015883 0.18217213 -0.082436614 -0.070406824 0.033956524 -0.17763756 -0.16221611 0.31811005 -0.17862666 0.053271785 -0.024748167 -0.16881786 0.17027771 0.10026247 0.26940513 0.021308502 -0.022136955 0.08795 -0.19768536 -0.09872041 0.10083819 0.1169377 0.108765595 -0.1883859 -0.14343117 0.15097414 0.20919666 0.12360139 -0.16772765 0.03755443 0.03571326 -0.041155398 0.034053173 0.2101219 -0.02945605 -0.18048559 0.06757985 -0.1317739 -0.014218714 0.26964197 -0.04603716 -0.27774504 0.15846968 -0.13909045 0.08577989 0.10219241 0.09734381 0.0564728 -0.015231405 0.17012487 0.094305046 0.13849813 -0.23267071 0.11663209 0.04084422 -0.029292742 -0.051677067 -0.20983025 -0.17181738 -0.21301903 -0.016577024 0.017030085 0.015184425 -0.010255901 -0.31103522 0.14855914 0.09776361 -0.079536326 0.24412845 0.22667406 -0.016320745 0.3166403 0.19258076 0.015769219 -0.02491851 -0.07009491 0.0033055227
9 -0.1423668 0.047722656 -0.026199723 0.21918017 0.11434983 -0.15016153 0.07805185 0.2089241 -0.09003886 -0.13113798 0.104527 -0.25514588 0.096561365 0.09202652 0.06571006 0.05630867 0.24409914 -0.124288745 -0.033244196 -0.30306923 0.1588149 0.038661603 0.1633559 -0.0944394 0.08123937 -0.01807706 -0.12816052 0.18844216 -0.08523952 -0.043786015 0.26728985 -0.100515775 0.091213666 -0.10418491 -0.07320989 0.07412786 0.21699007 0.15356933 -0.0073055765 0.1550389 0.07283497 -0.08726215 -0.11819718 0.033662226 0.06959432 -0.0048148166 -0.10515764 0.0052312976 0.08989338 0.14823574 0.10869654 0.0015991384 -0.029896664 0.049364205 -0.057628147 -0.021676624 0.17085625 0.038187437 -0.023760498 0.12512146 -0.1192462 -0.024204189 0.23549479 0.010567394 -0.18565957 0.08868571 -0.06580327 0.016656801 0.022200648 0.06471996 0.051150154 0.047192696 0.09533026 0.03289341 0.10021619 -0.12840174 0.069396235 0.05157285 0.02256226 -0.038953323 -0.18986423 -0.072597496 -0.007261217 0.11560523 -0.061861042 -0.06290898 0.0032514462 -0.07026736 0.16198586 0.086188644 -0.0078114606 0.1443515 0.13619658 -0.042895894 0.2928804 0.026680706 0.072422914 -0.04106515 0.02129782 0.012353812
8 -0.07901727 0.032079175 0.19435045 0.049283475 -0.18749788 -0.24961092 0.11423956 0.29404774 -0.14052251 -0.33001605 0.24945566 -0.19427712 0.07634443 0.020120181 0.04083639 0.06764642 0.18557054 -0.22415622 -0.04529496 -0.3225029 0.07411322 0.027994888 0.32825023 0.057510633 -0.1414496 0.085260086 -0.030804407 0.08097618 -0.024740973 -0.023617882 0.19878513 -0.109480076 0.11405915 -0.25257608 0.09929231 0.03582745 0.34911865 0.049831916 -0.13116224 0.117823556 0.087077916 -0.07828677 -0.28671163 0.018317718 0.08223678 -0.18672845 -0.17037345 0.14983961 0.0132641485 0.121918626 0.07839487 0.07729746 0.0044159773 0.045107156 -0.039743192 -0.029085066 0.05906774 -0.058279585 0.032041457 0.026308976 -0.16022336 -0.048772167 0.17814445 0.02265023 -0.19910811 0.15703568 -0.20687918 -0.002268518 -0.008083522 0.023104407 0.107432455 0.33280584 0.0004303122 0.076969266 0.09909187 0.046123303 0.09240079 0.0026131235 0.0883828 -0.010568576 -0.11835027 -0.040375456 0.24409264 0.046961084 -0.21197376 -0.09056225 0.010198798 0.09235701 0.058209542 0.17139988 0.18712851 0.002280907 0.0024376858 0.049801443 0.2849602 -0.0010340996 0.09572379 -0.18190248 0.018576512 -0.0931333
28 0.028793722 -0.01608049 0.01255118 0.2763432 0.27937686 -0.061644975 0.14105044 0.1962021 -0.009327709 -0.09863356 0.06075194 -0.33582285 0.06711169 0.26415095 0.06968319 0.0058040554 0.035836004 -0.00580948 -0.03875039 -0.33318797 0.25100693 0.10355677 0.09456012 -0.044234496 0.094170675 -0.026702745 -0.07522392 -0.042422302 -0.15097502 -0.13602321 0.24595375 -0.17753461 0.048458133 -0.0993104 -0.11412688 0.10963929 0.09107698 0.22569267 -0.023725059 -0.11810265 0.046832763 -0.18009539 -0.12836798 0.11909674 0.0657972 0.006576718 -0.2091618 -0.12699436 0.14717455 0.23514672 0.10721965 -0.2012797 0.044778116 0.024834806 -0.021812405 0.073967054 0.1581697 -0.07154009 -0.17740299 0.036116656 -0.14005072 0.019241026 0.22390623 -0.04202234 -0.25929186 0.22812587 -0.13112639 0.07268489 0.10052115 0.07470673 0.09256072 0.09851328 0.08503285 0.072126105 0.19197662 -0.14326186 0.1295799 0.052207712 -0.025883986 -0.076591454 -0.19546913 -0.114593185 -0.13426039 -0.05498431 -0.01808387 0.049450964 0.028858438 -0.27803394 0.03955217 0.11038394 0.028159367 0.15684356 0.16982424 0.051144674 0.25859347 0.15757398 -0.011803779 -0.0764841 -0.15238862 0.053317465
6 -0.0074355323 0.1838148 0.13019496 -0.028196553 -0.3213111 -0.18429992 0.032535486 0.4099407 -0.16565637 -0.4093462 -0.13509944 0.06815649 -0.21017684 0.061508574 0.06257447 0.040302396 0.48579338 0.088438265 -0.07696858 -0.42333314 0.07285515 0.0034747098 0.15814859 0.1845395 -0.022156646 0.3154607 -0.43392888 0.037404817 0.008319339 0.2939397 0.26746908 -0.06681896 0.10194933 -0.4935452 0.027488643 -0.1672477 0.050067417 0.052299265 -0.006799878 -0.18446667 -0.12057326 0.034843482 -0.0026981924 0.16666402 -0.15170406 -0.5274904 -0.17755342 -0.0680864 0.15222542 0.09203062 -0.038040955 -0.0522783 -0.33736357 -0.148367 0.043007355 0.07285414 -0.0009740194 -0.09372191 0.12538978 0.20077132 -0.05752864 0.011169634 0.3406347 0.30365753 -0.03170877 0.36464107 0.28432238 0.07754332 -0.21150179 -0.040739685 0.1570315 0.197707 -0.16599223 -0.10552203 0.37462825 0.16767424 0.093651384 0.26159716 -0.045244336 -0.24520966 -0.26086977 -0.008756776 0.3511988 0.38270485 -0.091150686 -0.033504676 0.43892524 0.21380973 -0.17595683 -0.0583956 0.2760973 -0.10290754 0.2156705 0.018499224 0.115990736 -0.18662715 0.13963194 -0.05425349 0.036408324 0.4148699
7 -0.017449236 0.19544427 0.03550952 0.05109622 -0.20488337 -0.18008037 0.02814193 0.35503176 -0.15872546 -0.36054403 -0.14761926 0.052106656 -0.174997 0.09661219 0.10262288 0.07427196 0.51518184 0.11254158 -0.08235758 -0.418354 0.111325435 0.004155679 0.1077381 0.123045616 0.07849197 0.2790973 -0.44989985 0.051129844 -0.0015836996 0.2749874 0.30407035 -0.04372135 0.096951604 -0.44027615 -0.0028211048 -0.12085491 0.009664898 0.092261694 0.035478722 -0.15391073 -0.11643963 -0.008241123 0.0741827 0.16658989 -0.12311966 -0.42901704 -0.1697708 -0.112646386 0.1791215 0.08866215 -0.023567492 -0.0666596 -0.37055013 -0.13304107 0.03883303 0.08532917 0.045864146 -0.047066048 0.089539446 0.24188541 -0.044987112 0.027756521 0.3465272 0.3118187 -0.010051522 0.33281437 0.28496602 0.07205762 -0.16959347 -0.035633877 0.12403452 0.0689963 -0.14069362 -0.08461056 0.36804107 0.08935506 0.0645507 0.28937742 -0.03711756 -0.23373802 -0.26119566 -0.02704694 0.26069847 0.3749228 -0.016502624 -0.0062707067 0.44021675 0.15584983 -0.09859269 -0.10000836 0.19309136 -0.040046137 0.2465294 0.0115011735 0.108151995 -0.18638411 0.13012773 -0.04462536 0.010030364 0.41717574
31 -0.13775 0.05028539 0.0009288275 0.1965851 0.12606506 -0.1374735 0.110471494 0.19649304 -0.07606311 -0.12404675 0.15677148 -0.29257917 0.12808083 0.059916306 0.03890375 0.051355172 0.21666534 -0.17442074 -0.034454864 -0.29508618 0.170204 0.040387686 0.20917942 -0.093550056 0.015400841 -0.023878762 -0.056807544 0.16082978 -0.07663121 -0.07801636 0.25262225 -0.12208595 0.08798834 -0.11499271 -0.05701749 0.078134075 0.27086693 0.16195044 -0.04366551 0.18751508 0.11098301 -0.10811776 -0.14557222 0.033918496 0.11002704 0.02599002 -0.11357013 0.021226188 0.06808278 0.14264832 0.11877559 0.020134244 0.025807932 0.046687167 -0.09735739 -0.04280334 0.18373923 0.03342838 -0.050693482 0.08256502 -0.120900325 -0.058523912 0.21951537 -0.0060622725 -0.20611179 0.08091573 -0.13358572 0.021820635 0.03758241 0.06272959 0.04088377 0.06825797 0.12855485 0.07331855 0.060999848 -0.14655791 0.085765526 0.031390224 0.03933915 -0.0033533897 -0.18861102 -0.09163346 -0.009245211 0.04565345 -0.09549203 -0.08240609 -0.030723454 -0.056865323 0.15617245 0.090895355 0.021176621 0.14561729 0.107933626 -0.03404057 0.30421746 0.047467537 0.06939097 -0.054039784 -0.0005261528 -0.045486722
30 -0.14245068 0.02856337 -0.10779366 0.371831 0.3781884 -0.08274148 0.119073525 0.18392695 -0.036767885 0.0059750886 0.075051025 -0.42714515 0.15112215 0.19483407 0.06173965 0.007948663 0.15986711 -0.09715561 -0.009813695 -0.3280871 0.27079353 0.07421909 0.11092333 -0.19171014 0.16267046 -0.11490848 -0.10256064 0.18970175 -0.15637857 -0.15193842 0.30755126 -0.18243697 0.089368284 -0.013385756 -0.18016994 0.15311635 0.18468204 0.25169703 0.008917452 0.14697589 0.11125436 -0.18482447 -0.1087907 0.07950964 0.11575705 0.15175039 -0.12746514 -0.1173244 0.1348783 0.20941862 0.13851906 -0.109456904 0.064412184 0.086355194 -0.08521068 0.006742496 0.28443503 0.047405705 -0.13827285 0.15024908 -0.13769694 -0.040620346 0.2545057 -0.05638775 -0.25532016 0.07825913 -0.10147531 0.090328366 0.10607462 0.117470644 0.035408057 -0.06901089 0.22825152 0.06964159 0.119949155 -0.2577769 0.09278446 0.040192854 -0.018680237 -0.04324065 -0.26164168 -0.13338278 -0.21472695 0.047926933 -0.012725708 -0.020808166 -0.056250338 -0.2768673 0.23719367 0.10432423 -0.09088784 0.26295614 0.20695697 -0.09534222 0.3381829 0.17059056 0.044939052 0.007878515 -0.02869339 0.0017644409
25 0.06908533 -0.07382609 -0.03236081 0.33555493 0.41718793 -0.004537558 0.16775617 0.18752441 -0.0011400322 -0.038188953 -0.041503597 -0.38968408 0.03900464 0.40849522 0.06160125 0.00021655994 -0.034161843 0.106320895 -0.019929845 -0.3663914 0.3564419 0.15772314 0.02260954 -0.018533593 0.2026197 -0.024702046 -0.094468094 -0.14856882 -0.2014193 -0.1913705 0.27331653 -0.16539435 0.02127846 -0.069816045 -0.16456266 0.14915255 -0.014929612 0.27655008 0.014002507 -0.2766563 0.034107495 -0.22486232 -0.08893468 0.15348202 0.05198228 0.049087282 -0.30126858 -0.2188656 0.22635818 0.2662332 0.0962065 -0.29865882 0.028130852 0.021289388 0.039621726 0.11347422 0.15789974 -0.15240064 -0.2484282 0.020839911 -0.13925987 0.0606134 0.24141546 -0.04512159 -0.2733505 0.27683815 -0.13341229 0.097843535 0.15695444 0.089769006 0.12285811 0.06494731 0.06604325 0.05736981 0.2643123 -0.20608611 0.18738604 0.06276209 -0.050433874 -0.10093691 -0.21173121 -0.16200198 -0.2258103 -0.086606786 0.0212021 0.11294802 0.074546926 -0.39192408 -0.031366877 0.08152355 0.018973561 0.21121557 0.26074216 0.08674442 0.23330727 0.24195103 -0.059101645 -0.07222077 -0.21350597 0.1519849
29 -0.06068187 0.028634172 0.018121643 0.18908815 0.14511895 -0.11761277 0.13175932 0.21150929 -0.07831658 -0.139182 0.09103354 -0.29102933 0.10878461 0.14157245 0.060473304 0.017145919 0.140056 -0.08719669 -0.032335386 -0.31843975 0.1745632 0.05806184 0.14512186 -0.04821984 0.046263006 -0.020399788 -0.06085434 0.045253985 -0.10955875 -0.07934006 0.24611084 -0.13149104 0.04586175 -0.13038605 -0.06285601 0.113450296 0.17110418 0.17521524 -0.024014432 0.034371626 0.09193472 -0.1371509 -0.14790711 0.061092168 0.08624807 -0.017251763 -0.17168579 -0.033512942 0.088002756 0.16943222 0.105727896 -0.05542201 0.018868854 0.027640518 -0.029368293 -0.00043284992 0.14741117 -0.040228914 -0.09598468 0.060488597 -0.13147993 -0.03643078 0.20541598 -0.012229811 -0.20164189 0.14711958 -0.13429925 0.03654306 0.063360855 0.03588102 0.085284986 0.09535531 0.09491531 0.07871828 0.12510362 -0.09697236 0.11065217 0.041892443 0.028004548 -0.01874032 -0.16731222 -0.09222069 -0.018219387 0.01212911 -0.061929423 -0.030658357 0.024693988 -0.118136585 0.11538958 0.10647389 0.032440245 0.14687684 0.14022066 -0.005471569 0.285888 0.10812027 0.03567816 -0.08742056 -0.021769635 -0.020484032
5 -0.011872146 0.14875975 0.115315676 -0.0014859401 -0.3192533 -0.2291616 0.04935882 0.3862823 -0.19579202 -0.41697663 -0.06371589 0.05339767 -0.14166827 0.06307993 0.085166514 0.06622579 0.4573123 0.04276037 -0.06010558 -0.38307247 0.06309104 -0.015756931 0.17250028 0.14981596 -0.006391324 0.27194434 -0.37679738 0.07036753 0.026888095 0.24332808 0.26586244 -0.040353443 0.101823084 -0.4501046 0.061975744 -0.121612586 0.103439346 0.033107877 -0.009891766 -0.11751055 -0.0935353 0.0024926753 -0.018869577 0.13144097 -0.09969758 -0.4513879 -0.1759741 -0.007981291 0.13260911 0.061863337 -0.03228804 0.0020640288 -0.31481063 -0.10975444 0.047609664 0.06482328 -0.009462571 -0.074100494 0.14068003 0.18693657 -0.0657758 0.013629863 0.30574167 0.2839932 -0.035306208 0.31718147 0.19783214 0.066220164 -0.18382949 -0.030044029 0.14289062 0.19059904 -0.14178455 -0.06837202 0.32906303 0.14534707 0.06290469 0.23633087 -0.010188662 -0.20264436 -0.2191275 -0.013306628 0.34773433 0.34353426 -0.08093527 -0.043108426 0.3805485 0.2163108 -0.10019684 -0.037429374 0.24706624 -0.10042801 0.17079191 0.0393328 0.13789159 -0.177968 0.13473375 -0.09604658 0.06275301 0.30860817
11 -0.046410117 0.2159468 0.08701073 0.019470522 -0.3336673 -0.2128953 0.042367376 0.37518007 -0.19970283 -0.41233107 -0.06959018 0.08638022 -0.118687846 0.01869952 0.0909866 0.09474022 0.5509145 0.029828332 -0.103887275 -0.40459505 0.04128372 -0.01808583 0.15792944 0.12801109 -0.012911 0.2981582 -0.39871454 0.08859619 0.036351483 0.2962241 0.29397643 -0.04718755 0.11596587 -0.45966956 0.03959277 -0.11189893 0.10269292 0.027508562 -0.015049677 -0.058807425 -0.08578666 0.027195567 0.024620092 0.14844276 -0.08788463 -0.45442542 -0.14299105 -0.047889423 0.1275933 0.041086644 -0.035056572 0.023477156 -0.38423455 -0.13617128 0.013378784 0.057640705 0.011956906 -0.037776064 0.15315785 0.20905927 -0.046148986 -0.011843839 0.33284792 0.31882003 -0.011450959 0.31049117 0.22323383 0.05043406 -0.21615283 -0.04608124 0.111365035 0.13185355 -0.1355706 -0.07385374 0.3024691 0.12876873 0.057510577 0.27182618 -0.00084276247 -0.20131554 -0.24077466 -0.02344649 0.34692475 0.38325265 -0.07180017 -0.06443739 0.40344167 0.24185342 -0.06572907 -0.08158454 0.20527709 -0.08842499 0.18082254 0.023179015 0.11671439 -0.24431235 0.14623746 -0.05391194 0.08459578 0.33751276
26 0.08739583 -0.065146625 -0.031179689 0.39140204 0.46203706 0.002250724 0.17896897 0.19288233 0.03561401 -0.041074123 -0.015865684 -0.42708606 0.06339738 0.42868796 0.082894616 -0.015188306 -0.059618484 0.11626423 -0.035959534 -0.37149292 0.36146745 0.17121178 -0.0045484374 -0.030375201 0.21226858 -0.05401861 -0.082636856 -0.15461965 -0.23229238 -0.21372303 0.27652422 -0.21255875 0.031708125 -0.049419 -0.19462794 0.16576463 -0.014776384 0.31532058 0.02156362 -0.27098656 0.038919207 -0.24072738 -0.1143156 0.17714718 0.05255946 0.05141706 -0.30006647 -0.24812539 0.22854961 0.3049068 0.12049836 -0.33691305 0.045312323 0.014705091 0.028346054 0.14303827 0.18906663 -0.14249043 -0.28250036 0.027763955 -0.16586055 0.074460454 0.25332794 -0.08311909 -0.31291384 0.3012594 -0.1497951 0.09345986 0.18534961 0.08461717 0.13011667 0.047976274 0.08187534 0.06800932 0.28076574 -0.20175476 0.18904302 0.060588397 -0.06931548 -0.10853864 -0.23287295 -0.1581511 -0.25744373 -0.11192975 0.027776763 0.14499322 0.07005624 -0.45899037 -0.008374742 0.11380397 -0.018625682 0.22736715 0.26930276 0.09444501 0.26208022 0.25812715 -0.061520834 -0.06953672 -0.24415353 0.13030088
20 -0.07815183 0.061994288 0.121689335 0.0999197 -0.10426981 -0.17373195 0.09025766 0.26403943 -0.11381918 -0.2374502 0.13918988 -0.17466265 0.04658436 0.05592668 0.031803902 0.03968238 0.21119624 -0.13767147 -0.047713093 -0.3039267 0.098453805 0.025423083 0.23001634 0.0303537 -0.05633371 0.07767345 -0.09530253 0.08347097 -0.038438495 0.0010310209 0.22329383 -0.11942532 0.10434823 -0.23669307 0.02985871 0.0077716922 0.24554564 0.07503351 -0.07452203 0.06146925 0.049906544 -0.067311965 -0.19087686 0.044255756 0.04191635 -0.16577785 -0.14611545 0.053565215 0.04729026 0.12436306 0.070716895 0.02740112 -0.04111764 0.023684837 -0.037339542 -0.017379396 0.09218433 -0.04522963 -0.0022447545 0.061664373 -0.12404693 -0.027175661 0.18680988 0.050842892 -0.16754545 0.1609856 -0.084399834 0.033216197 -0.019316755 0.038840678 0.09581729 0.21748953 0.023071878 0.031974576 0.13327612 0.0020781383 0.091246925 0.054144464 0.049073506 -0.044979896 -0.16118647 -0.06515845 0.16335256 0.089293316 -0.14678411 -0.06654018 0.05965816 0.030711427 0.03779502 0.11688556 0.14289069 0.025651345 0.07310304 0.006392735 0.23833814 0.00630012 0.076112166 -0.09900155 0.010329972 0.013120487
13 -0.060568556 0.033180393 0.19910789 0.06533991 -0.18048571 -0.22691943 0.1223184 0.30205438 -0.14538568 -0.3261194 0.18626042 -0.18248937 0.03319246 0.06902645 0.04327065 0.05091885 0.15129505 -0.15578994 -0.03664742 -0.31657228 0.088091634 0.049157258 0.2880516 0.10125878 -0.11128662 0.11982684 -0.063456886 0.04307914 -0.031929996 -0.023248242 0.19168301 -0.1096569 0.09435213 -0.28067398 0.092489555 0.020712215 0.29953223 0.0445147 -0.12203488 0.040513024 0.069304295 -0.08548567 -0.27632248 0.037128545 0.060216546 -0.21637417 -0.1941355 0.11716024 0.038454235 0.10610265 0.0708958 0.03490416 -0.013239346 0.02835891 -0.011025145 0.0027823446 0.039970066 -0.10461181 0.028864315 0.015876383 -0.15773551 -0.03566585 0.1849537 0.045952167 -0.1751422 0.19502416 -0.1678232 0.03506791 -0.031475104 0.037243452 0.10764091 0.34113294 -0.01860936 0.04412675 0.1342096 0.06451802 0.09153697 0.025877194 0.07401745 -0.047264658 -0.14396472 -0.060028065 0.25659862 0.040664654 -0.19211493 -0.06422704 0.06885272 0.06536557 0.0035876571 0.15521099 0.2036843 -0.020566177 0.023406781 0.05914013 0.26249114 0.007887627 0.08638893 -0.16316056 0.0052362606 -0.019268053
22 -0.049953364 0.054183397 0.19127266 0.024806408 -0.20745769 -0.19053763 0.08828523 0.29736733 -0.120727144 -0.30558512 0.12531675 -0.12838086 -0.015949754 0.055243183 0.032591946 0.044789735 0.20723617 -0.13071756 -0.045914788 -0.32159546 0.09446517 0.037615195 0.264046 0.09423359 -0.13039476 0.14586481 -0.106943496 0.022531003 -0.016160658 0.027926477 0.20556384 -0.11664397 0.09263329 -0.30116904 0.0682486 -0.034867954 0.25307307 0.05489279 -0.11011289 0.0007528595 0.037525687 -0.042355124 -0.20499846 0.054104116 0.015495792 -0.26621276 -0.17816903 0.07247133 0.054599483 0.118346885 0.049603842 0.016908867 -0.049035158 0.007676569 -0.02567691 0.016301839 0.05816506 -0.0802776 0.029730784 0.029937396 -0.12572762 -0.023603009 0.18991342 0.07796912 -0.15666808 0.21928391 -0.07542175 0.021600008 -0.042278845 0.030042846 0.11152979 0.30624613 -0.0477517 0.013668574 0.17774141 0.06853157 0.1130492 0.067132555 0.040737767 -0.0713385 -0.15513606 -0.048345253 0.24525629 0.0941178 -0.178546 -0.057365313 0.09385346 0.091729306 -0.060527813 0.122078486 0.2222797 -0.03736813 0.045757547 0.04032672 0.20611653 -0.013022339 0.092983894 -0.12724742 -0.01200023 0.06572719
18 -0.059947975 0.06764294 0.18738768 0.027843151 -0.22639324 -0.20942485 0.11295284 0.3115093 -0.15550968 -0.33571208 0.14021228 -0.11776491 0.0032411825 0.048530284 0.035143957 0.061010033 0.22884953 -0.11469777 -0.07413163 -0.35199058 0.06902638 0.034988113 0.27259964 0.11046929 -0.13099748 0.14951552 -0.10312789 0.015847227 -0.022407617 0.03409598 0.2306076 -0.098573945 0.10173721 -0.3081823 0.08345506 -0.01843993 0.2665202 0.0415671 -0.10485969 0.0042302455 0.042985573 -0.0579593 -0.2078322 0.063496135 0.04439869 -0.27933607 -0.18098341 0.076688565 0.06425265 0.09543564 0.053483475 0.038548023 -0.06905872 -0.01208907 -0.022887023 0.0097550405 0.037823275 -0.08982562 0.04353797 0.03086335 -0.10904601 -0.03277144 0.21546134 0.09247617 -0.16105609 0.22859435 -0.10162273 0.021885086 -0.06808527 0.02535764 0.10508296 0.3122386 -0.045480296 0.035094623 0.16835183 0.086541176 0.11097296 0.08131315 0.05761192 -0.07247865 -0.14307486 -0.060786225 0.258517 0.10409136 -0.17971757 -0.07207008 0.116532505 0.111657485 -0.036766734 0.11696939 0.21775702 -0.040618308 0.050355818 0.05855253 0.23119687 -0.050985884 0.10821264 -0.14488135 0.014204538 0.03608145
17 -0.05618928 0.2823303 0.021919737 0.003488084 -0.32596686 -0.20709625 -0.011807514 0.41805777 -0.21863054 -0.40053505 -0.19356869 0.14841071 -0.17735074 0.006872357 0.09446035 0.09825688 0.69382393 0.11224725 -0.11399748 -0.45454684 0.043337237 -0.0488787 0.11803689 0.09891576 0.04376128 0.32462323 -0.5401727 0.14889742 0.042006075 0.3997182 0.3502886 -0.03170748 0.099244684 -0.51758564 0.0012717032 -0.15148996 0.056051116 0.058698233 0.03375292 -0.08462785 -0.13297918 0.04905443 0.12411051 0.17054039 -0.15055573 -0.5270989 -0.11888527 -0.11246088 0.16077094 0.032574695 -0.04957579 0.002195478 -0.4834136 -0.1774053 0.0056407168 0.05365788 0.012714165 -0.011640152 0.1599668 0.28823704 -0.00078528404 -0.0046541477 0.40458816 0.40575767 0.03810692 0.3425148 0.40579155 0.056762226 -0.27355713 -0.062228702 0.107758455 0.02889571 -0.1614112 -0.11146522 0.36924115 0.13124405 0.033603027 0.35202998 -0.04181634 -0.24431941 -0.27896258 0.0018263418 0.34095246 0.51571864 -0.043046292 -0.07093551 0.503935 0.30510116 -0.07520406 -0.14378722 0.19363837 -0.08436213 0.27103695 -0.041795004 0.10570261 -0.30496088 0.1722427 -0.0016484973 0.108359605 0.46545517
23 -0.16349824 0.026738124 -0.09961054 0.31655717 0.29236108 -0.08122427 0.114942394 0.17166232 -0.065118216 -0.016152779 0.079128504 -0.33510417 0.15065137 0.1413177 0.049996 0.02192586 0.20590368 -0.12227751 -0.021009795 -0.3171099 0.24342003 0.0491178 0.15034239 -0.1499416 0.11555536 -0.087784015 -0.10500374 0.19977745 -0.1300974 -0.10263467 0.29872295 -0.12720087 0.08830375 -0.03189753 -0.13510664 0.12423732 0.18463558 0.21303184 -0.0029065905 0.16199483 0.105272606 -0.14101335 -0.09637786 0.053806793 0.10468566 0.090700395 -0.10128551 -0.071391195 0.12709506 0.17157868 0.13459839 -0.04924795 0.024655351 0.06550631 -0.095329195 -0.011948138 0.22948377 0.04567188 -0.10588274 0.10788775 -0.10880373 -0.0421779 0.25249615 -0.0333429 -0.24340855 0.06648101 -0.081647076 0.058524374 0.057107933 0.09888488 0.03654968 -0.038135696 0.16913271 0.062394056 0.09115789 -0.23258151 0.09127924 0.05801314 -0.009585598 -0.022497496 -0.23156585 -0.108562484 -0.14955498 0.08341679 -0.041696608 -0.05647999 -0.036067355 -0.16573615 0.19151907 0.080016054 -0.056132056 0.20867346 0.17254329 -0.08021855 0.31618136 0.09082552 0.06272284 -0.009285447 -0.006523334 0.00048549217
10 -0.135774 0.03191657 0.036225595 0.19642754 0.112632886 -0.15767054 0.12771098 0.20127618 -0.078346595 -0.13800418 0.19411376 -0.33741096 0.14594577 0.07361606 0.036785834 0.03156769 0.17126752 -0.20642236 -0.038356077 -0.28972766 0.14611772 0.058076497 0.23335768 -0.08358829 -0.0035547465 -0.046940234 -0.03128911 0.14782356 -0.09722052 -0.1051486 0.2581128 -0.15055493 0.080823965 -0.12144877 -0.04845232 0.093431026 0.29975775 0.16760753 -0.04511433 0.17740722 0.11442953 -0.12431253 -0.22115082 0.014584816 0.11531835 0.026631476 -0.13876751 0.058472652 0.055038907 0.162797 0.12134251 0.0077706506 0.075723715 0.06393211 -0.078190155 -0.03773039 0.1884855 0.014684297 -0.057888743 0.075703084 -0.14822164 -0.07070505 0.20692435 -0.04577701 -0.23233573 0.07795176 -0.19839123 0.021854928 0.05575236 0.06411858 0.06069823 0.13346116 0.1461618 0.07882925 0.04791966 -0.12969424 0.07550485 -0.009579276 0.051949613 -0.003440721 -0.17363991 -0.098172635 0.015393376 0.014990635 -0.10904526 -0.09538926 -0.07716746 -0.076366685 0.18256433 0.1438448 0.034188535 0.15180004 0.08747708 -0.042853292 0.33844677 0.09566342 0.06736911 -0.08168883 0.00014356336 -0.109278664
15 -0.14447537 0.067431346 -0.14380226 0.30394968 0.26955584 -0.07878113 0.092014015 0.16789468 -0.071245246 -0.02700026 0.034041148 -0.2977628 0.15752265 0.12408872 0.065254144 0.045327734 0.28781602 -0.087889306 -0.035027087 -0.31505474 0.20829944 0.02963573 0.10452989 -0.15981874 0.16135637 -0.07603247 -0.146161 0.21628311 -0.11626136 -0.041268226 0.32735708 -0.112818025 0.07902893 -0.06681933 -0.15705363 0.12190689 0.1644954 0.21226801 0.02031612 0.1704369 0.0746739 -0.11835948 -0.028694125 0.05677012 0.09880333 0.08458984 -0.08860524 -0.099657506 0.117817245 0.15483636 0.107514314 -0.04180124 -0.05234546 0.030866241 -0.095199145 -0.021205554 0.2138423 0.072033584 -0.09032253 0.16243628 -0.0775746 -0.052302245 0.2764113 0.026252413 -0.20143613 0.06315311 -0.036205225 0.04487869 0.042733196 0.07339699 0.03362967 -0.11176534 0.17224635 0.06131078 0.09674879 -0.22417499 0.059965257 0.08933798 -0.014548904 -0.02954253 -0.22402556 -0.11821894 -0.15710415 0.1321645 -0.012356737 -0.068469785 0.016289132 -0.13670707 0.22984955 0.029254314 -0.098848 0.22398587 0.19834736 -0.09663345 0.29711798 0.048425697 0.058893092 -0.0024288436 0.035241365 0.026901638
19 -0.16443446 0.028654842 -0.10189055 0.30546388 0.2845711 -0.106111445 0.10172256 0.175647 -0.07211455 -0.04485695 0.08822701 -0.34064093 0.15752001 0.13819018 0.07037228 0.021009926 0.25118324 -0.13764106 -0.025563091 -0.32469893 0.22296666 0.040353656 0.13629983 -0.15197963 0.14936253 -0.07200203 -0.12705527 0.23797277 -0.12395298 -0.09350854 0.2946176 -0.10821657 0.07835503 -0.05815732 -0.12042572 0.10741559 0.19825585 0.19648424 0.017354695 0.19915083 0.085006386 -0.14358708 -0.0765763 0.04428767 0.10290095 0.0892981 -0.10915903 -0.043616667 0.11388755 0.16717298 0.13603774 -0.03176322 -0.00031502105 0.068158224 -0.085673474 -0.030553002 0.24276513 0.07594134 -0.07371361 0.15468903 -0.11731504 -0.055267505 0.26162153 -0.0025196832 -0.22267507 0.054455135 -0.0841759 0.05202365 0.048461895 0.09188428 0.041643366 -0.040869407 0.16931386 0.05118706 0.0860703 -0.23404546 0.07509978 0.06829638 0.0039518434 -0.024548357 -0.24725336 -0.103814915 -0.14121842 0.10842302 -0.03290161 -0.050750617 -0.016854838 -0.1464437 0.23107392 0.074067846 -0.07130872 0.22365254 0.18274705 -0.076156326 0.33665863 0.08773928 0.07495264 -0.02543432 -0.00018604871 -0.006409554
16 -0.19670711 0.07357108 -0.15709059 0.34627086 0.33807766 -0.088268735 0.09379996 0.1617055 -0.051625114 0.011708695 0.07904363 -0.36454707 0.19144413 0.089479305 0.06562314 0.034906596 0.28745005 -0.14537801 -0.022473166 -0.30525205 0.230855 0.017936334 0.11260597 -0.2269365 0.15863304 -0.11141541 -0.12367288 0.28074935 -0.12630503 -0.090732284 0.33347794 -0.13349856 0.08847207 -0.020014307 -0.16983224 0.12621325 0.2205481 0.2367721 0.018189358 0.27764836 0.10913061 -0.14288129 -0.043094505 0.049265128 0.11546254 0.1516455 -0.04334523 -0.0852041 0.106116414 0.16370295 0.1424397 -0.020535057 -0.0026053686 0.0702331 -0.13581707 -0.03681484 0.2774937 0.11600492 -0.099291906 0.18153152 -0.09352701 -0.063247174 0.27750865 -0.008841104 -0.22043987 0.019174287 -0.05813597 0.051441688 0.063627295 0.08501687 0.008816549 -0.14786011 0.23307247 0.06934689 0.060627338 -0.27635506 0.05451965 0.07177075 0.0017030558 -0.01080909 -0.25301486 -0.11475544 -0.20115672 0.11761424 -0.015432107 -0.08627832 -0.050930943 -0.16750741 0.3016156 0.04189389 -0.1336017 0.25802788 0.20607226 -0.12545708 0.34318247 0.07636324 0.06680923 0.028424678 0.023034638 -0.027124131
21 -0.20729934 0.06966927 -0.09220756 0.27523205 0.23664404 -0.112834916 0.077063456 0.172531 -0.06955647 -0.045561943 0.10225556 -0.31707048 0.17152284 0.064345375 0.065287486 0.030778928 0.28361577 -0.15997319 -0.031759173 -0.29818055 0.18267237 0.02490883 0.17139146 -0.1802282 0.108597934 -0.06969941 -0.11598643 0.26497728 -0.10593753 -0.049473174 0.31426117 -0.12696554 0.08408173 -0.069928296 -0.12742941 0.119239666 0.24222231 0.19516644 0.0015079263 0.24749726 0.1125618 -0.1224458 -0.075926565 0.04171131 0.121580295 0.08722937 -0.065437794 -0.029901939 0.08368354 0.12700894 0.14693622 0.014334097 0.0063770707 0.04608642 -0.13941592 -0.04526011 0.22608551 0.09977099 -0.05737575 0.14039375 -0.08856221 -0.06311416 0.2727896 -8.871927e-05 -0.19653134 0.030590178 -0.05424304 0.04500043 0.02694833 0.0844696 0.014036232 -0.051469706 0.18012041 0.07345003 0.06395847 -0.20729715 0.04749881 0.0621801 0.018689211 -0.0026544842 -0.22197539 -0.11264807 -0.10571706 0.10776817 -0.052335884 -0.097486645 -0.044940174 -0.10532531 0.24830818 0.07153264 -0.06813593 0.21179669 0.1596835 -0.12035477 0.34085292 0.04167578 0.081240386 0.008608687 0.03864256 -0.0418314
27 -0.16715975 0.037540197 -0.11405439 0.317612 0.28529102 -0.115082785 0.09916671 0.18300617 -0.053122286 -0.04400423 0.13589817 -0.3545574 0.17678368 0.10340295 0.075830355 0.04640386 0.22849192 -0.17334276 -0.022998603 -0.3254327 0.1981321 0.03224871 0.16066043 -0.20216483 0.13146621 -0.10747311 -0.0790247 0.2502675 -0.12490269 -0.09009479 0.313263 -0.15811929 0.106009126 -0.047664475 -0.12853935 0.13254263 0.22561103 0.20255616 0.0047786813 0.24123028 0.11530938 -0.16208813 -0.114003524 0.029028052 0.1479108 0.11526263 -0.06983993 -0.04795852 0.09209077 0.18601915 0.13338432 -0.028706856 0.032221805 0.089669846 -0.097625405 -0.038012505 0.25872448 0.094688065 -0.10380251 0.16191787 -0.12579812 -0.06139713 0.2544017 -0.023933738 -0.240052 0.039648287 -0.10273254 0.064100504 0.05794554 0.102955244 0.03431387 -0.06341599 0.22983804 0.076610535 0.056477424 -0.24446432 0.057846643 0.041580502 0.012932375 -0.016316196 -0.21235606 -0.12576073 -0.16418569 0.088775374 -0.020051455 -0.07217603 -0.06954306 -0.16883288 0.28167266 0.101775035 -0.10472288 0.23624025 0.17120281 -0.10773155 0.3481551 0.10504521 0.080016494 -0.0148233175 0.039661236 -0.075489424
12 -0.03146413 0.07551883 0.15898111 0.02243706 -0.24988693 -0.21590722 0.095049314 0.32152396 -0.16469404 -0.357937 0.08431997 -0.05249867 -0.051001158 0.06315613 0.05082859 0.055849828 0.25301668 -0.07894707 -0.052997936 -0.31762058 0.05873336 0.01692011 0.23350953 0.13924618 -0.07437552 0.17692243 -0.15009043 0.019597992 -0.012384293 0.09352197 0.20608489 -0.08227765 0.09280101 -0.3472069 0.08841994 -0.029958963 0.19465157 0.033461053 -0.07376507 -0.032306917 -0.008221745 -0.047457002 -0.16476142 0.083020486 0.014021415 -0.30199635 -0.18052952 0.069468014 0.06275084 0.07451014 0.021297287 0.0433399 -0.13972215 -0.042311426 0.010901303 0.024555927 0.0015159557 -0.10482312 0.06402813 0.061239958 -0.11129846 -0.017988836 0.20748882 0.14040932 -0.10382349 0.23391108 -0.027475905 0.040248834 -0.08436339 -0.0023295204 0.12412632 0.27564815 -0.09127754 0.0058419267 0.21089268 0.10058951 0.07906308 0.10976054 0.059687573 -0.10283276 -0.14290082 -0.05098099 0.29732758 0.13065955 -0.13830486 -0.05017167 0.1959534 0.124506265 -0.043461986 0.07244003 0.20899716 -0.06780394 0.080011345 0.057939775 0.17877078 -0.070904255 0.08873142 -0.146859 0.028960265 0.09978011
