2708 100
35 0.31558615 -0.29531872 -0.050379332 0.1432192 0.1615139 -0.17677699 -0.10897018 0.6474077 -0.37773487 0.0150093855 0.4536873 0.06323215 -0.048018545 -0.2120959 0.03707454 -0.23004098 -0.07180203 0.13209325 0.09460065 -0.17934045 0.028265161 -0.23165357 -0.22053707 -0.07189951 0.36097884 -0.60172665 0.21989952 0.16663998 0.09439588 -0.30862626 -0.18350686 -0.15062378 0.2187361 0.024401274 0.14877175 -0.0017087026 0.3517872 -0.63779056 0.13369536 -0.0589908 -0.18613058 -0.092767954 -0.14882381 0.07766588 -0.17428696 -0.14357477 -0.058195233 0.23511873 -0.12376139 -0.01091876 0.2124631 0.19562761 -0.41499084 -0.20985231 0.4267603 -0.09568118 -0.057139345 -0.21288197 -0.14586838 -0.0034691445 0.0048227906 0.2653834 -0.16376817 0.12834595 -0.29665306 0.031069463 -0.48792487 -0.09378536 -0.4443966 -0.15359911 0.039886814 0.49139467 -0.02257136 0.041879285 -0.030942472 0.044887178 0.19773519 -0.24067925 -0.1639131 -0.38963854 0.19118686 0.0033407947 -0.39548507 -0.0023768684 -0.13661358 0.12517016 0.2441943 0.13214512 0.43766272 0.088685684 0.094477214 -0.35005826 -0.17735581 0.39487866 0.19127782 0.39025715 -0.15889597 -0.3520474 0.101398565 -0.016713645
1365 -0.3024846 0.040499106 -0.35420024 0.124348134 0.33683327 0.018668013 0.07670098 0.5016515 -0.31960148 -0.54785955 -0.064286746 -0.014699978 0.1748431 -0.14713885 0.35991803 0.022082143 0.19542404 0.32379884 0.115066685 0.021790052 -0.20564356 -0.17419825 0.036368825 -0.26980844 -0.23608343 -0.07450873 -0.4890931 0.12407473 -0.023661291 -0.11435251 0.04810079 -0.5845319 0.03484278 -0.36315966 0.33617094 0.5193721 0.3360955 -0.25730047 -0.058685433 -0.4243824 0.3989135 -0.22274365 -0.42036662 -0.050095286 -0.4258144 0.052558243 -0.030654239 0.15802681 0.63166356 0.27586132 0.33276296 -0.5240896 -0.1769056 -0.114655174 -0.11043339 -0.47831807 0.20924163 0.35022753 0.009541757 -0.12714095 0.20685585 0.11434761 0.09853704 0.056635663 -0.38637558 0.64274234 -0.5636734 -0.12808399 0.29422674 0.4941108 0.21823649 0.24927117 0.3699277 0.3299929 -0.5546303 -0.5138105 -0.11284287 -0.2608256 -0.10514215 -0.3683432 0.08569065 0.46598172 0.3323094 0.012055484 -0.17467383 0.02603508 -0.068803065 -0.54115486 0.076949194 -0.38280943 0.017034477 0.25864923 0.48109627 -0.38186347 0.17277196 -0.10687681 -0.24869777 -0.2716353 0.030003404 -0.1710125
6213 0.05970777 -0.18573895 -0.16787724 0.011189048 -0.10597883 -0.22313395 -0.16596629 0.44533747 -0.19958235 0.18849175 0.23524576 -0.13773939 -0.04163311 -0.05036603 -0.08412081 0.05131093 0.5267381 0.39794886 -0.025851065 -0.40635452 -0.27065417 -0.17532712 0.039547715 -0.23066752 -0.54853666 -0.44136763 -0.76217985 0.43671826 0.00058756804 -0.0957208 0.1919735 -0.14334859 0.07715618 0.22360562 0.046063554 0.38000304 0.3440681 -0.37464264 -0.22712578 -0.043145895 0.16162801 -0.2493142 0.004076711 0.03655424 -0.2656065 0.001932207 -0.23921415 -0.2589487 0.0743897 -0.04240427 0.20431216 0.2102419 -0.054004923 0.18453906 -0.30267385 -0.25134146 0.05159682 -0.47754973 -0.4403295 -0.3384241 0.2691388 -0.17617702 0.30600864 0.6250469 -0.49285525 0.1174911 0.025350234 0.066809095 0.45225516 0.17142662 0.16423464 0.0812305 0.07291561 0.008885756 -0.22949636 0.28696314 0.3001829 0.39620805 -0.13506167 0.38215542 0.32961443 -0.30191398 0.24345575 -0.013878413 -0.4673282 -0.09304377 0.15684544 -0.2693853 0.33566713 0.66243523 0.21334846 0.0033139996 0.25198457 0.009088535 0.4388169 0.31448513 -0.052710265 -0.22110824 0.0300728 0.16846786
3229 -0.036914825 0.6783182 -0.25418222 0.23561387 0.03659083 -0.13359174 0.05244809 0.5347191 -0.21678548 -0.08024072 -0.23675482 -0.1760659 0.23432642 -0.44196188 0.54552156 0.071905494 -0.027423427 0.20369947 -0.21701092 -0.076816685 -0.08553979 0.19627693 -0.28400126 0.25688952 -0.28270796 -0.18917038 -0.19120798 -0.19069962 -0.5805827 -0.27096465 0.014737156 -0.40249208 -0.13107006 0.19070637 0.6574238 0.33610404 0.217348 -0.26038578 -0.5170167 -0.10167759 0.0140175475 0.3158424 0.015128958 -0.17049602 -0.54977775 0.23522566 0.27720597 0.42277646 -0.3296556 0.028567508 -0.1579861 -0.20611255 -0.7186048 -0.4090681 0.013539413 0.02378321 0.2471881 -0.07134514 -0.013897406 -0.10140519 0.20010598 0.2108263 0.29829204 0.2772638 -0.19743323 -0.012369278 0.0038238948 0.097396374 0.18904302 0.21089415 0.55878496 0.21485631 0.58687556 0.18703055 -0.53628206 -0.35387415 0.08173419 -0.0231492 -0.013303363 -0.26061374 0.3025097 -0.1420458 0.34079677 -0.018532084 -0.25695434 -0.16572464 0.63721585 -0.12427728 0.029945314 -0.009692703 -0.22089107 -0.049836185 0.2084181 -0.09964042 -0.10640543 -0.14947085 -0.18251503 -0.0800011 0.20285891 -0.1797084
910 0.12671694 0.30713418 -0.2243808 -0.007518326 0.24922363 -0.18701121 0.020864755 0.68282723 0.33784416 0.19571654 -0.14727414 -0.21603264 -0.010365902 -0.3477823 0.122223265 0.1592616 -0.41158095 0.052167166 0.15470158 -0.5812852 -0.1503595 -0.31764427 -0.07289239 -0.07793701 -0.6164897 0.18009919 -0.40241632 -0.3305793 -0.34408906 -0.59194404 0.25800055 -0.5318723 0.278846 -0.69402814 0.374237 -0.35559642 0.36882213 0.17456612 0.22895218 -0.1729592 -0.087393284 -0.65112585 -0.15012255 0.37073854 0.06881221 -0.1415324 0.039185666 0.21106866 0.6563116 -0.5058205 -0.0024091932 -0.13090156 0.06621953 -0.05066482 -0.043969817 -0.3926692 -0.2653607 -0.2804023 0.49392912 -0.30379283 0.31929407 -0.023927819 -0.21522933 0.21287243 -0.45305258 -0.047470666 -0.06489219 -0.38507876 -0.034163 0.72432876 -0.18823591 0.043603357 -0.07670825 0.28126538 -0.5535105 0.44591016 -0.19553143 -0.046464212 -0.32681713 -0.32844272 0.007398271 -0.038815938 -0.006983338 -0.4654532 -0.6739042 0.009141324 0.48070735 0.08325723 -0.37998906 0.049315277 0.4013259 -0.20195177 0.27918682 -0.3063724 0.19307326 -0.12233998 -0.09258142 -0.0060476335 0.41525263 -0.097464904
4330 -0.1021591 -0.10889668 0.11700749 -0.6859904 -0.061128974 0.04873355 -0.0012893303 0.4293274 0.19688992 0.062472135 -0.093288995 -0.15214287 -0.10673314 -0.2279968 0.6147352 -0.056276746 -0.043429818 0.37547144 -0.11966628 0.26488957 0.05710317 -0.0770398 -0.2788544 -0.12952136 -0.6468545 -0.38987142 -0.12251661 -0.05084002 -0.25302097 0.26080182 -0.09407808 -0.5149946 0.54567164 -0.13712995 0.4225962 -0.2628408 0.16578776 0.010113682 -0.14022666 -0.09119627 0.5058778 -0.306078 0.1049096 0.11939656 0.17908822 -0.639359 -0.003781626 0.5992853 0.19469525 -0.22609052 0.4790016 0.45518175 -0.06662299 0.24493475 -0.025192112 0.20337734 0.27629578 0.22919974 0.1167835 -0.26277024 -0.13050956 0.19500391 0.2339907 0.3508378 0.24060073 0.31444055 0.10090862 -0.3836619 -0.17136395 -0.27343854 -0.05997497 0.14503963 0.29787114 0.10852736 -0.8786141 0.3522682 -0.020910954 -0.32921576 -0.43366835 -0.0829296 0.8908858 -0.16133416 0.9532136 0.18881279 -0.6608404 0.000517089 -0.15820497 0.21376033 0.1630365 -0.2242879 0.63905716 0.370464 -0.11331438 0.036757544 0.07087807 -0.08342764 0.10125687 0.06968445 0.44360587 -0.086597644
114 0.48603418 -0.00038235702 -0.4949048 0.06086745 -0.019081779 -0.22707032 -0.051800627 0.17723735 -0.31096765 -0.13224456 0.3139208 0.24612391 0.17752193 -0.053154986 0.122982554 -0.25517544 0.36260724 0.13490647 -0.15468512 -0.510698 -0.19071765 -0.21010557 -0.042562194 -0.10998694 -0.798316 -0.09938802 -0.4479708 0.21730608 -0.19895852 -0.049215827 0.084367596 -0.07334516 0.0865914 0.35277152 -0.106496215 0.24717504 0.14605737 -0.40059984 -0.57671773 -0.004756041 0.2636081 0.01685044 0.29945925 0.15600663 -0.27067217 -0.052534163 -0.988376 0.09232186 0.19558735 -0.14860997 0.074773826 0.09049039 -0.08316403 -0.13974658 -0.20582359 -0.4804725 -0.14023897 -0.087981194 -0.5604628 -0.30218142 0.38958573 0.11394422 -0.084670454 0.89186436 -0.20583543 0.5400118 -0.048258964 -0.042552356 0.33986288 0.1487482 -0.37055844 -0.089690626 -0.35616353 0.3408242 -0.08306139 0.23411892 0.51125383 0.34337455 -0.30527243 0.73435855 0.42319533 0.076932855 -0.40828338 0.19372821 -0.8833186 0.19354002 0.23767737 0.026016641 0.11602561 0.39572474 0.07505596 0.19107623 0.43016505 -0.52545965 0.070465714 0.3026869 0.15849824 -0.30716506 -0.028840695 -0.05321576
3231 0.24226043 0.6219882 0.555644 0.5362412 -0.20833634 -0.08928877 -0.31597772 -0.03697629 -0.3191369 -0.008175995 -0.19271281 -0.05804481 0.17838031 -0.027676081 0.1293125 -0.2328984 0.53998196 0.4246502 0.48514834 -0.12001784 0.03770703 -0.19034892 -0.8214616 -0.5176931 -0.40155 0.25811246 -0.16034925 -0.00905256 -0.033048596 -0.27774072 -0.16364922 -0.0772032 0.13763584 -0.049675293 0.15569526 0.3059635 0.0013412647 -0.7461939 0.33239695 0.51815915 0.528169 -0.1645798 0.29423672 -0.059109308 -0.29329678 -0.18924773 0.1229492 0.25776476 -0.13868518 -0.45781726 0.29748204 0.13541953 0.107591264 0.03420366 0.17768468 0.07523578 -0.35671893 0.13423951 0.004179006 -0.46170697 0.004916634 0.2195203 -0.009848819 -0.11060231 0.41528067 0.023552075 -0.58094907 -0.47036296 0.36395124 0.10910245 0.61589867 0.24189116 0.24801672 0.26683494 0.18972093 0.3616646 0.15356523 -0.22759615 -0.33565748 0.10670076 0.261844 -0.42631692 -0.15346652 0.34390846 -0.3345924 0.081784934 0.44340974 -0.16525465 0.112128 -0.16912253 0.121690266 -0.5255188 -0.48020566 0.24725738 -0.29500106 -0.15673499 -0.82790077 -0.13335864 -0.27200225 -0.7014079
19621 0.08521878 0.31928572 -0.2577342 0.426323 0.3439382 -0.17263645 0.28434214 0.28480554 -0.18900546 0.28467107 0.4660478 -0.23007518 0.34933454 -0.22519568 0.16994196 0.19016635 0.22909647 0.05500316 0.008893264 -0.25575566 -0.1102259 0.33678854 0.25280425 -0.037562884 -0.018601498 -0.23983479 -0.72044003 -0.35554254 -0.43452594 -0.6399808 0.24192622 -0.46820238 0.41845995 -0.5961759 0.011797565 0.55952483 0.45478225 0.13051301 0.27685103 -0.57213753 0.16591282 -0.06889276 -0.17940502 0.14698899 -0.36406106 0.43506026 0.13459365 1.048034 0.08108909 0.21388918 -0.32611343 -0.376386 -0.1247448 -0.53376997 0.6166831 -0.19908735 0.11793874 0.26467723 0.04931659 -0.4399916 0.046275396 -0.22856572 0.5766153 0.25676277 -0.3167392 0.8080282 -0.041693274 0.40548784 0.3340189 0.56818175 0.0807525 0.24217299 -0.025155604 0.04380808 -0.2941495 0.08136311 -0.34153447 -0.4473725 -0.14986911 0.050308358 0.51301724 0.17048539 0.45237944 0.13651244 0.14775828 0.41449273 0.103643395 -0.28642762 0.32594413 -0.034285516 -0.1651357 -0.19121577 0.45868486 -0.31059045 0.31519204 0.024739986 0.15342635 0.033919647 0.562779 -0.69069403
1272 -0.037999604 0.24439034 0.55536973 0.25490683 0.28637072 -0.4704333 -0.39674148 0.13008134 -0.121039554 -0.17536306 -0.24912874 0.18927693 -0.07741296 -0.058186274 0.08703336 0.076500155 0.4283112 0.4080511 0.663664 -0.3000116 -0.33710477 0.1446696 0.01271353 -0.5376596 0.32905707 -0.022710139 -0.32382375 0.6309149 0.0068158037 -0.057629995 0.22971837 0.2819233 0.19850197 0.0921838 0.14419785 -0.07892785 0.22539784 -0.16923124 0.1876165 0.26460102 -0.042747732 0.11417321 0.025070732 0.38044438 0.18026124 -0.13901079 -0.2528741 0.5655056 0.37993717 0.20986672 0.5357663 -0.52066004 -0.13090305 -0.1158566 0.47899297 -0.2352009 -0.20871247 0.14687468 -0.05150263 -0.13109368 0.204681 0.50067383 0.26930904 0.052012376 -0.2637932 -0.14008844 -0.2729024 -0.8829298 0.2918853 -0.021096325 0.22899804 0.067316264 0.10255559 0.025608325 0.11082282 0.014907561 -0.111129194 0.73627377 0.20163015 0.43804276 0.33260563 0.082995564 0.48052308 0.5314042 -0.24185213 0.5258236 0.08743969 0.23088413 -0.15021105 -0.259386 -0.23551942 0.17795534 -0.2854803 -0.123353004 0.3809704 -0.035334293 -0.44792923 -0.1384533 0.40961778 0.7076136
2440 0.19926345 0.8276917 0.3014808 -0.58317655 -0.08599902 -0.39388838 -0.3923462 0.5685261 -0.17304578 -0.23167615 0.043471795 -0.06904055 -0.028474348 -0.15918061 0.25073287 -0.11907635 0.42964193 0.39374408 -0.009173341 -0.10779525 -0.0185415 -0.3688175 0.23441045 -0.41642246 -0.27620873 0.053304315 -0.2529557 0.09685405 0.4072017 0.15818149 -0.2002611 -0.50342435 0.45940977 -0.18966353 0.969205 0.07852684 -0.29998 -0.11239238 0.34112254 0.35913065 -0.28844538 0.4516129 -0.25277627 1.1005113 -0.046496116 -0.27124363 -0.039896946 0.09980109 -0.015735347 0.15155831 -0.6563049 -0.117698275 -0.73545283 0.04503102 0.4629998 -0.26271322 0.2850771 -0.48606107 -0.08480438 -0.11562793 -0.4670533 -0.16600284 -0.5203889 0.16899338 -0.34793237 0.007208593 -0.26130748 -0.6275472 0.101126924 -0.5150422 0.055356357 -0.28002334 0.22256531 0.24347945 0.6714339 0.41113055 0.076102205 0.29834107 0.115632996 0.40759748 0.017034687 0.66206217 0.9758109 0.49214017 -0.46545723 0.4102576 -0.0065517207 0.35432467 0.2899781 0.0104499515 -0.1400563 0.28613046 -0.63567567 -0.2175301 -0.32237974 0.06315838 -0.29460302 -0.37785923 -0.11947498 -0.3592497
4584 0.41625577 0.11753229 -0.22614248 -0.013194886 0.23716898 0.2753652 -0.2512613 0.19531158 -0.33959404 -0.3722401 0.30092523 0.20042828 -0.35489532 0.044515036 0.28469923 -0.47586054 0.5319833 0.04125135 -0.07033633 -0.17776692 -0.21372728 -0.15094131 -0.25351828 -0.21618144 -0.5055207 -0.43446237 -0.8766318 0.08361485 -0.0836445 -0.06558132 0.24408017 -0.491505 -0.1658713 0.17007478 -0.17060441 0.016209787 0.6563465 -0.35190755 -0.050571997 0.016496189 -0.35195675 -0.25666764 -0.30602327 0.024495784 -0.2798145 -0.32198706 -0.1464447 -0.22843969 0.23301771 0.36168128 0.042768724 0.00013267837 -0.3403071 0.4337324 -0.30118388 -0.77075243 0.13152252 -0.01344775 -0.25209042 -0.29106158 -0.11064336 0.28154042 0.3325721 0.2486782 -0.8970479 0.180695 0.20207348 -0.34372392 0.45011932 0.36010167 0.033492703 0.22566828 0.051721193 0.4484362 -0.05182176 0.32464412 -0.023649327 0.0948326 -0.2695673 -0.08428349 0.3119138 -0.15732636 -0.05517166 0.020478724 -0.44393483 0.028999547 0.23157689 -0.5904941 0.25353357 0.091236226 0.27453318 0.255068 0.03575421 -0.39413658 0.09196545 -0.0034180314 -0.6065299 -0.13997512 0.4423856 0.2641185
6214 0.19306892 0.040292744 -0.15451066 -0.48240018 0.2752158 0.040213823 0.107970394 0.33839205 0.043555103 -0.22595534 0.2190106 0.124766745 0.015976924 0.44416806 0.13105555 -0.13241306 0.72723687 0.2666782 0.16023168 -0.36092278 -0.06296511 0.2408222 -0.39951393 0.2558974 0.058559984 -0.39107862 -0.56926364 0.5529217 0.018259376 -0.2875375 0.22828516 -0.04798865 0.012569976 0.01931654 -0.08687912 0.18763939 0.20288518 -0.50868666 0.11213857 0.132363 -0.2788471 -0.16613974 -0.00075000786 0.12646936 -0.3928392 -0.43816897 -0.38567904 0.31745106 0.2798221 0.36336622 0.16611451 0.033008955 0.049987182 -0.36424425 0.0018508821 -0.34705126 0.30032003 -0.23121153 -0.542421 -0.123273835 0.29765952 0.0460692 0.10807562 0.4814716 -0.54459137 0.3741698 0.36988133 0.17259195 0.039877396 0.09092843 0.12560506 0.003382943 0.20311783 0.43771344 0.12505479 -0.20132257 0.32515866 0.30591452 -0.43643826 0.21999887 -0.1717651 0.08546327 0.13103049 -0.33503735 -0.901808 0.04078154 0.5339442 -0.38696423 0.042759493 0.3728332 0.19939773 0.3488326 0.06873556 -0.52280825 -0.07609814 0.0832614 -0.1879787 -0.20377733 0.53033507 -0.11496416
24966 -0.5296687 0.14884837 -0.4651003 0.07664321 -0.6864052 0.0005340884 -0.16664618 0.29497045 0.3843213 0.4886246 -0.18663691 0.34054053 -0.27032328 -0.46586847 0.5171814 0.02450035 0.23901185 0.7308182 0.7012423 -0.17461862 0.030144578 0.6805728 -0.27569303 0.42527425 0.3569665 -0.043698706 -0.040467918 -0.39430296 -0.16494194 0.19659185 0.10082506 -0.867607 0.056099076 -0.4855017 0.28057885 0.061511517 -0.4064017 -0.24564084 -0.33517137 -0.05820243 -0.58895785 -0.4734531 -0.28640753 0.10052021 -0.24241629 -0.16286571 -0.24967222 -0.08559008 0.6138639 -0.34233245 -0.24618849 0.29668435 -0.21391632 -0.3909888 -0.17882644 -0.18113276 -0.027859464 -0.13188164 -0.15282653 -0.49775845 0.28808072 0.15789443 -0.20684513 0.52326596 0.10142213 0.25215253 -0.24500628 -0.43224043 0.6640874 0.67163724 0.02991051 0.16650602 0.19264221 -0.074853085 -0.8398048 0.29984894 -0.06190706 -0.29066446 0.32690954 0.14181311 -0.07047633 -0.21424392 0.20967352 0.009582651 -0.3451932 0.577437 0.33815643 0.77528894 -0.27708942 -0.20293593 0.246094 -0.19826244 0.20306496 0.35401234 -0.03592199 0.21577671 -0.49116614 0.108567685 -0.104199335 0.03880806
2665 0.4979011 0.19229433 -0.7864672 0.1695818 0.32948533 0.15586375 -0.13182117 -0.10760376 0.08790082 -0.3378926 0.96617836 -0.567551 0.12586083 -0.4469045 -0.0828541 0.62073076 0.2675804 0.39782232 0.22923294 0.0064189015 0.285201 0.43719438 0.32477498 -0.7717097 -0.4827998 -0.834022 -0.05541695 -0.2118689 -0.024549218 -0.7381696 -0.44874865 -0.3560018 0.71789503 -0.86178166 -0.47561368 -0.020244673 0.329362 -0.074529774 -0.34960088 -0.53161824 0.37449887 0.075067624 0.18814446 0.50343436 0.23634222 0.025993066 0.06246716 0.01586637 0.60792077 0.0199712 0.30353308 -0.40464562 -0.18514779 -0.4525642 -0.020982038 -0.42795494 0.32650647 0.39018226 0.6621424 -0.45065367 -0.51281834 0.01925371 0.21376464 -0.042620678 -0.17925407 0.5057657 -0.90908617 -0.6312186 0.65104425 0.33774227 0.30082265 0.11167666 0.21750803 0.50223774 -0.09311541 -0.52655643 -0.2373829 -0.2078949 0.075847805 0.6109754 -0.36311695 0.1876437 0.14117001 -0.12842235 -0.15741271 -0.60908926 0.858209 0.45819533 0.30643943 0.07733451 0.14378273 0.33393493 0.28483513 -0.09196435 0.21273859 -0.06152259 -0.33187175 0.05633039 -0.041703317 -0.36738768
20193 -0.27287617 0.13715231 0.07587225 0.5084837 0.20094123 -0.90896857 -0.43876556 0.8336583 -0.05702737 0.29658443 -0.72438896 -0.5961755 -0.11128356 -0.2382924 -0.37082708 -0.18295576 0.056226306 0.30485684 0.22906078 -0.08239471 -0.33436033 1.1085691 -0.032829937 -0.38474023 0.13774025 -0.39933562 0.17632946 0.7333724 0.11494595 -0.2674028 -0.6819984 -0.5887815 1.241024 1.0213312 0.31802666 0.25215793 0.18171002 -0.31485805 -0.067872316 0.18586418 0.15444098 0.29911464 0.39242023 0.7285256 -0.024444506 -0.021551747 -0.42508462 -0.33527848 0.5501474 -0.38060302 -0.18712054 -0.19135255 0.5232084 -0.03404644 0.41816807 0.46779704 0.313035 0.5584038 0.21028215 -0.3582177 -0.41488403 -0.071129695 -0.8656217 -0.137301 -0.06308878 0.10281566 -0.6713258 0.20184505 0.5216402 -0.24981827 -0.69605255 -0.23292296 0.66077095 0.48976597 0.21221597 0.47267157 -0.43928012 -0.3970318 0.16667867 -0.003482958 0.051951513 0.12126937 0.13550438 -0.17146228 -1.1023316 0.34045503 0.35440934 -0.8760224 0.48809758 0.7130086 -0.12015532 0.22808762 -0.43707392 -0.30904165 -0.18341209 -0.09199672 -0.17619579 0.4600967 0.62181664 0.19808955
887 0.24044321 -0.09288446 0.29714152 -0.20450668 0.27191156 -0.2798435 -0.7188012 0.46008357 -0.01744147 -0.20916131 0.22984919 -0.1317541 0.24321952 -0.058613405 -0.27132946 0.4838658 0.49633643 0.25775737 0.36901394 -0.2992387 -0.014126471 0.35563356 0.02783207 0.03288812 -0.20756388 -0.31902745 -0.11542433 0.3187295 -0.09040722 -0.2689739 0.32259473 -0.34877443 0.2710673 0.28673458 -0.54533297 0.43900424 0.18784656 -0.4518682 0.033817638 -0.038862195 0.11772218 0.011621368 -0.21789436 0.64105743 -0.35587925 -0.22018538 -0.28939816 -0.5226038 0.004755018 0.15999064 -0.30387712 -0.05679832 -0.121460915 -0.19402246 -0.15926193 -0.05705735 0.22163352 -0.36044988 -0.32224065 -0.036016587 0.13620503 -0.4126794 0.43219635 0.16647549 0.05524012 -0.19674012 -0.18161793 -0.14404614 -0.086503245 -0.14601596 0.29029617 0.27751356 0.22922663 -0.0068219914 -0.23077658 -0.1756601 0.22440633 0.2944449 0.0100403605 -0.051382314 0.4645184 -0.029653428 -0.057982545 -0.13044588 -0.43078882 -0.39439675 0.00092415477 -0.3414442 0.43432572 0.34852982 0.48021114 -0.16184519 0.26573175 0.45558432 0.13094401 0.53787625 -0.46951097 -0.5971146 -0.02597043 0.4022712
8224 0.09609688 0.26024008 0.0059020882 -0.096886694 0.52974015 -0.11447084 0.23986469 -0.10786427 -0.2244195 -0.590877 -0.37577668 -0.42086455 0.45251325 -0.48293906 0.24238808 -0.5078204 0.61929005 0.4345479 0.24034816 -0.30997816 -0.09683977 0.16276483 -0.32349786 -0.44640395 -0.23059648 -0.083187185 0.36137328 0.26697075 -0.021166362 0.0063503585 0.11789814 -0.55335486 -0.12015041 0.29902813 0.21830581 0.14589056 0.013396591 -0.18128876 0.1202719 -0.08452299 -0.21572499 -0.16792141 -0.27789554 0.25844792 -0.018386846 -0.40471742 -0.4735678 -0.26121905 0.061729383 0.38972422 0.12435001 0.22768548 -0.3765589 -0.14456204 0.7521821 0.28426316 -0.5220366 0.80973727 0.35076374 -0.3545047 -0.33932364 -0.19455533 -0.42585486 0.02189435 -0.15315399 -0.16763294 0.1619991 -0.31496888 0.6466888 -0.6703099 0.23504351 -0.31842923 0.06378543 0.5249811 0.4669461 0.24776559 -0.17431262 0.39745548 -0.0972006 0.3926434 -0.24578075 0.12371636 0.37913394 0.88194066 -0.5005895 0.52193594 0.30808058 0.29378745 0.0647413 -0.020148415 0.3800294 -0.30385205 0.027614694 0.61167794 0.2981102 -0.30851012 -0.32582352 -0.62559795 0.30566463 0.22060512
82920 0.29391745 0.24161114 -0.041516773 0.5088718 0.3376088 -0.2036034 -0.15735617 0.68223643 -0.44233355 -0.036127232 0.25252128 -0.2228033 0.15339656 -0.25985897 -0.1889651 -0.086035006 -0.2598456 0.375629 0.19117995 0.14134921 0.038830128 -0.6327145 -0.40008757 0.10179721 0.13182512 -0.69681615 -0.09024312 0.10658527 0.35387948 -0.1053554 -0.20047678 0.1887844 -0.046337105 0.14153953 0.11880795 -0.42545286 0.3258232 -0.2681343 0.053631123 -0.4547578 -0.41609967 -0.7437562 -0.5185218 0.6218734 -0.1273471 -0.48078263 -0.064104214 0.15279943 -0.28576547 -0.56362015 -0.057927065 -0.23448622 0.070688635 -0.4638765 0.88828975 0.5262593 0.19662787 -0.3472715 0.1157313 -0.024009082 -0.05965885 0.22502209 -0.15245238 0.33925748 -0.49237704 0.38414675 -0.5819482 -0.14110275 -0.30119386 -0.14360815 0.2445308 0.5453239 0.058012452 0.19994766 0.4576506 -0.15436745 0.46991512 -0.7004829 -0.6805021 -0.08625733 0.114707656 0.16150077 -0.65065837 0.05890056 0.12959896 0.17479026 0.2903914 0.41284934 0.6146835 0.3463643 0.34359613 -0.19046333 0.20714223 0.49388883 0.11603383 0.61437315 -0.31391582 -0.060250092 0.41746065 0.18187624
12182 -0.30242944 0.3158191 -0.123905815 0.091618136 -0.17524062 -0.62588835 0.5740284 0.5197403 0.23092325 -0.54229045 0.018205525 0.123622455 0.4098108 -0.24396397 0.103511184 -0.106644124 0.75607485 -1.154309 0.6628937 -0.43995166 0.73607373 -0.20291561 -0.20673756 -0.77105737 -0.5764351 -0.2762277 -0.22936146 -0.008205905 -0.41397828 0.22122587 0.020245276 -0.2833896 -0.17920971 -0.3092445 0.14964443 0.5105509 -0.09304061 -0.41684192 -0.34898454 0.07189538 -0.3315663 -0.2444352 0.01145919 0.15407024 0.47255164 -0.5279303 -0.25836068 0.4542961 -0.59166193 -0.057213057 -0.3174574 0.31092802 -0.315123 -0.6917918 0.1818406 -0.085798584 -0.32314146 0.02323377 -0.3240767 -0.09767901 -0.1091762 -0.6245485 -0.4998241 0.18176524 0.09469796 0.29320848 -0.7190278 -0.07532817 -0.08154351 0.35006103 -0.2520095 0.22559017 0.7031561 -0.55158967 -0.21637996 0.2499567 -0.18271086 -0.6548959 0.11581217 0.64396 -0.13302988 -0.12760146 -0.011717311 0.21906656 -0.11031335 -0.010918251 -0.030627681 0.64384013 0.025841959 0.4306059 -0.3412244 0.2064331 -1.0811957 -0.31932643 -0.027767977 0.047766484 -0.42594033 -0.045324713 0.8012414 0.8738138
22563 -0.24388078 0.5778198 0.13647346 -0.13073745 0.9367668 -0.42258927 0.19431947 0.11325045 -0.30553013 0.031765807 0.42309013 0.33447465 0.41177034 -0.11403558 -0.15762837 -0.0695929 0.4522559 0.3588697 0.111488104 0.11377967 -0.37571263 0.08111339 -0.43375546 -0.3163367 -0.14258742 -0.3522932 0.07874515 -0.26914638 0.106032096 -0.28069514 0.5702043 -0.041166507 -0.26741514 -0.23285782 0.6682869 0.52348036 -0.02519749 -0.034673464 -0.28124335 -0.17235577 -0.088016994 -0.4737095 0.18523936 0.21775861 0.07068519 -0.511329 0.0059057167 -0.20390339 0.34037274 -0.2683491 0.05068061 -0.15963586 -0.0024398456 0.38670036 0.5930878 0.32027933 -0.26072034 0.15535282 -0.28246224 -0.22793746 -0.03434358 0.007105035 -0.36685473 0.15813579 0.102543056 -0.0061977245 -0.5537582 -0.11470113 0.45077232 -0.20279801 -0.42630324 -0.16485944 0.0659281 0.027542932 0.36415738 0.75498545 -0.013106264 0.23217805 -0.04640325 -0.3195407 -0.049134593 0.3791845 0.4557776 0.32195154 -0.39207545 0.36940634 0.64529544 0.049839556 -0.50452465 0.10666422 -0.0312583 -0.5472946 -0.09142341 -0.061100725 0.8608964 -0.49894693 0.20124812 -0.49514252 0.34717867 0.08895256
12576 0.6449075 -0.3550503 -0.012065693 -0.06793028 0.18627718 -0.054122802 -0.15933271 1.0225956 -0.5596033 0.17321391 1.0562644 -0.0711335 -0.21748145 -0.2554785 -0.16666555 -0.19815297 0.3493626 -0.30249208 0.2461124 -0.44785935 -0.26680255 -0.1620366 -0.1695531 -0.040360473 -0.10410686 0.114962466 0.036361188 0.1881209 0.35142285 -0.38887247 -0.13446663 -0.31869 0.38507015 0.71231353 -0.12586431 0.006071134 0.2050243 -0.6806973 -0.31692705 0.0004496193 0.085953474 -0.28328288 0.005244394 0.11297627 -0.82048696 -0.058495414 -0.26561514 -0.34371603 -0.031082025 0.082786515 0.4300756 0.48448348 0.269082 -0.5067196 -0.044286083 0.24082674 0.51178825 -0.17708401 0.24213278 0.0839972 -0.20597531 0.56693614 0.16116871 0.603468 -0.29826725 -0.44295412 0.04116319 0.121126354 0.17484617 -0.03374665 0.12607604 0.4614428 0.111419335 0.08611154 -0.27604222 0.035836343 -0.32301387 -0.022256756 0.66513896 0.2213637 0.02733236 -0.03547677 0.25905997 -0.20315629 -0.5489775 -0.07692099 0.18733652 -0.0064047016 0.45406884 0.3564449 -0.03819518 -0.9569503 -0.1357435 0.0736368 0.49132812 0.6495663 -0.13089857 -0.4013177 0.22588752 0.049877845
10169 0.37916467 0.7030614 0.46434236 0.33939454 -0.2791602 -0.010007972 -0.72497267 -0.02807564 -0.20029913 0.034238018 -0.06719939 0.16122267 0.49224728 -0.091670536 -0.044028055 0.05527646 0.010272053 0.3545122 0.71134424 0.23257206 0.13803604 -0.28587934 -0.56943953 -0.3517913 -0.060504388 0.27862778 -0.6230243 0.32074913 0.065513074 0.12860914 -0.12106577 0.0010621368 0.055956103 0.1927192 0.49942762 0.3449155 0.116514176 -0.60291684 0.01441867 0.3721312 -0.30655634 -0.15779985 0.6467314 -0.15714619 -0.26201358 -0.21687771 0.3179745 0.29547036 0.00939634 -0.13777375 0.56815857 -0.059084423 0.11593486 0.10271903 0.40728587 0.27511555 -0.19494154 0.28884333 0.16120437 -0.66408616 0.007725826 0.19776894 0.17894427 0.14687258 0.17527127 -0.02084322 -0.94569623 -0.42369628 0.4555558 0.40449014 0.59855276 0.43562862 -0.27683097 0.024850849 0.016334085 0.2308509 -0.72334945 -0.05800648 -0.04057866 0.42909563 -0.22135 0.08680795 -0.13076422 0.57310337 -0.46756554 0.26620576 0.120550334 -0.22568037 -0.23466325 -0.4388102 -0.051881086 -0.6006796 -0.3900617 -0.041523848 -0.22599633 -0.4215573 -0.7345839 0.02897818 0.11164468 0.0099848565
12350 -0.18430616 0.15595238 0.227256 -0.6397665 -0.5531162 -0.64568335 -0.3970587 0.06811216 -0.69513106 0.0019965663 -0.14455715 -0.11437885 0.30710456 0.04173271 -0.31237456 0.34439522 0.2234759 -0.55529433 0.19562441 -0.21231417 0.45267686 -0.2980879 -0.10182905 0.01465183 -0.31168637 -0.6619691 -0.344889 0.40281722 -0.15715785 0.2538246 0.3472823 -0.48899293 -0.28168947 -0.36451343 0.40391168 -0.14107417 0.32855478 -0.33434442 0.0975863 -0.13183717 -0.19489594 -0.5157505 0.41174343 -0.152903 -0.19923772 -0.17197727 -0.010589866 0.39064425 0.108517125 -0.2809446 -0.6221527 0.035366878 0.095108286 0.11365167 0.24294585 -0.22744097 0.06874788 0.7953463 0.22216254 0.30681595 0.41596597 -0.13287663 -0.19696262 0.16918555 -0.5320244 0.45059782 -0.48389217 -0.7321884 0.77427 0.33896992 0.18168715 0.31199625 -0.17244555 0.121712394 0.22564393 0.1532985 -0.03431882 -0.36439663 0.089202985 0.13677397 0.10749046 0.426738 0.18942899 0.6260513 -0.057703953 -0.026876995 -0.0045809597 0.7041971 0.04688409 0.5923466 -0.26902017 -0.24513488 -0.6734012 0.025651418 -0.34206253 0.02466265 -0.07307102 -0.27670258 0.40400982 0.7774171
8703 0.06276016 0.743441 0.18202855 0.53399366 -0.37629473 -0.4368928 0.39985862 0.16269106 -0.22224459 0.25719824 -0.344963 0.037336957 0.11262918 -0.33855408 0.14366242 0.42420217 0.36987796 0.70812035 0.37043068 -0.5433075 -0.16272816 0.19811651 -0.5890042 -0.27937356 -0.3757675 0.09699161 -0.10911268 0.089267805 0.21353136 -0.08457316 0.5971707 0.40770411 0.49955785 -0.1317695 0.10147589 0.52374786 0.07553594 -0.056878515 0.15336482 0.28578627 -0.39343032 -0.76353806 -0.02062471 0.20992945 -0.06150262 0.23647726 0.103276215 -0.20391975 0.66063833 0.42301068 0.6019354 0.8295426 -0.024774367 0.19298021 0.9399602 -0.2704821 0.85485697 0.1292421 -0.08223474 0.058472067 0.05734086 -0.34238175 -0.4441695 0.25687495 -0.03931476 0.31387782 -1.0187654 -0.13644046 0.48247543 -0.36459896 0.13794069 0.044777054 0.19211031 0.27269226 0.23034282 0.59718406 0.33529848 0.6866191 -0.09971467 0.50350535 0.81741697 0.0073315543 0.17531008 -0.44770175 -0.33810288 -0.3722312 -0.10593926 -0.114026144 0.17038196 0.25994205 0.027949411 -0.1680746 -0.4979993 -0.27528635 -0.08559262 -0.397868 0.41634688 -0.6641922 0.31694162 0.30282173
31353 -0.030502496 0.19617441 -0.45951742 -0.50437033 -0.27707595 -0.4101671 0.3734005 0.14945805 0.1361373 -0.06876076 -0.39386582 -0.41345033 0.011624157 -0.74300224 -0.06063714 0.36682758 0.4563155 -0.15432025 0.43335798 -0.814054 0.42824757 0.0952782 -0.5035362 0.14772896 0.22367015 0.0013570301 -0.605219 -0.3320427 0.19664383 -0.44939306 -0.47036332 -0.10750341 -0.27021313 0.07801346 -0.22635612 0.13113901 0.4919562 0.37544808 -0.97978204 0.35277006 0.057207886 -0.24979134 0.67446524 0.48287523 -0.22890563 -0.6483144 0.046498667 0.3166943 -0.4844342 0.11546497 0.004696677 0.2855466 0.08030711 -0.3810645 0.9570487 -0.57812077 0.48680037 -0.4460472 -0.11493862 -0.2613102 0.13395485 -0.3061129 -0.9493691 0.52473074 0.23788086 -0.40659893 0.08503856 -0.94861984 0.7845703 1.0662453 -0.39048478 -0.10602942 0.13657194 0.036271486 -0.7605292 -0.64345473 -0.09404036 -0.9470322 -0.032565046 -0.528778 0.8472753 0.109090135 0.11699233 0.18661222 -0.06196984 0.87969166 0.71311516 0.7060535 -0.392477 0.29175717 0.63471466 -0.0904362 0.30458638 -0.19776164 0.21181001 -0.10313428 -0.7864557 -0.51393384 -0.12679005 0.34482998
15429 0.39901572 -0.101409175 -0.049519256 -0.154709 -0.89830804 -0.89709705 -0.16172022 0.14705817 -0.07618415 -0.26755354 0.31005207 0.43122014 0.51773727 -0.5783561 -0.08214189 0.04598725 -0.28685102 -0.63718414 0.52019817 0.041585807 0.4112563 0.15447527 -0.1372114 -0.41854635 -0.2176933 -0.0066721044 -0.6732032 0.5211183 -0.23644471 0.66642344 0.06462815 -0.2695187 0.06969584 -0.44420454 0.51978666 0.28015506 -0.066696234 -0.6894296 -0.32987982 0.19980507 -0.5577278 -0.016083563 0.3087564 -0.26745713 -0.38245308 -0.10786097 -0.2754007 -0.087723844 0.329585 -0.35515147 -0.2928469 0.05211025 0.40139458 0.23217613 0.6596957 0.1473617 0.2644021 0.45618564 0.26394573 -0.05025528 0.35831562 -0.26225287 0.10291112 -0.26167974 -0.24359252 -0.10006662 -0.54838306 -0.35200426 0.7650414 0.027942542 -0.1532729 0.1500641 -0.5056556 -0.17646009 0.0039647887 0.07905814 0.29155558 -0.22656135 0.16503185 -0.053242356 -0.3025193 0.080164365 0.24198882 1.0197625 -0.8255752 -0.26544273 0.43337062 0.5780375 0.115464315 0.41639826 0.03368357 -0.123569295 -0.36702123 -0.2730001 -0.3268121 -0.22400573 -0.5486163 -0.083862334 0.5447622 -0.06397586
1481 0.20345512 -0.41288677 -0.06221064 -0.2241663 -0.08014824 0.16177666 0.17359181 0.4003136 0.008054421 0.35799053 0.17702061 -0.28998962 0.14839825 0.10398484 -0.5027424 0.03441744 0.20737712 0.11677344 -0.13029286 0.34071574 0.4060329 0.10143905 -0.74728453 -0.3788715 -0.20293695 -0.51404643 -1.1072551 0.15221828 0.1608513 -0.32678378 -0.2212281 0.3956556 0.26529154 0.111031026 0.3635698 -0.13129018 -0.44329104 -0.40659446 0.34540045 -0.13670489 0.4943762 -0.2595364 -0.10858221 0.46838576 -0.6558449 -0.04648204 -0.5926422 -0.258107 0.56256217 -0.15837228 -0.36678004 -0.41193512 -0.33119813 0.11870131 0.21622568 0.3736796 -0.17729002 0.19853778 -0.18074527 0.15031052 -0.1875728 -0.104467005 -0.4074639 0.399928 0.6703092 -0.98523796 -0.78558505 0.19166452 0.11658304 0.3227451 0.44220653 0.0016411347 -0.10891268 0.16284408 -0.4470764 0.1519121 -0.07892647 0.22320653 -0.31908783 0.51518667 -0.023301037 0.75903237 0.5913127 0.032766327 -0.9662046 0.88922775 0.20210743 -0.14546281 0.45848072 0.44898468 0.14310993 0.07604317 -0.7938592 -0.97189176 -0.37677512 0.68783724 0.27357396 -0.3579682 0.4157218 -0.41824225
39890 -0.059451547 0.13871655 -0.12329822 -0.13402429 -0.41146642 -0.0725356 0.2273895 0.5140214 -0.107130304 -0.0389103 0.09270305 0.22035652 0.8323725 -0.48479563 -0.27831283 0.006156409 0.35002604 -0.029980833 0.851954 0.13356319 0.49434525 0.37013912 0.02564146 0.5494158 -0.2669892 -0.7916792 -0.26885134 -0.31983593 -0.31158462 -0.13674258 0.16511948 -0.23361307 0.56521577 -0.2889322 1.1745052 0.2897037 0.4352681 -0.13340312 -0.23098037 -0.15091458 -0.004481615 -0.48018643 0.12038486 0.50719106 -0.5478414 -0.13431945 0.025357211 -0.21287973 0.08521074 -0.3072554 0.93139666 0.4657843 0.381858 -0.5602013 0.18925339 -0.19976838 -0.6419856 0.19013487 -0.12300834 0.7282052 -0.32640696 0.3769797 0.105715044 0.38986364 -0.3166946 0.09191783 0.35097232 -0.58191794 -0.18407534 0.06567763 -0.3878107 -0.78801525 0.5454681 0.41265324 0.014829043 -0.24274932 -0.10783678 0.19901751 0.5231532 0.37240967 -0.053334337 0.23734936 -0.44602624 0.09412218 -1.2801135 0.267398 -0.65843016 -0.43080544 -0.2495969 -0.6723396 0.22268492 0.22979552 0.34785023 -0.28595254 -0.03661961 0.058352973 -0.43554264 -0.08289007 0.11364583 -0.0385982
3191 -0.5047466 0.16561598 0.059753846 0.092764735 0.19599125 0.42443994 0.056130227 0.48915398 0.17716448 -0.078981444 -0.069806255 -0.46481246 0.26419282 -0.32762644 -0.44324714 -0.6752551 0.9092189 0.040645964 0.49863982 0.21655805 -0.11006523 0.26985368 -0.24917181 0.9892438 -0.62114453 -0.54358995 0.01650358 -0.85585946 -0.33270866 -0.19716948 0.30383316 0.14248323 0.6507838 -0.7340209 0.4224482 -0.33748636 0.08582468 -0.089002766 -1.0432543 0.07566229 -0.3026181 -0.35545313 -0.45811132 -0.042478703 -0.32229993 -0.09025684 0.34324253 0.17891368 -0.33583564 -0.48643202 0.47680613 0.37122747 0.12303439 -0.5525884 0.6860103 0.004508986 0.36902094 -0.032799967 -0.14964212 0.03575738 -0.17578813 0.49119645 -0.07103015 0.1763717 0.003115094 -0.09315667 -0.30625093 -0.9274787 0.059565462 0.42572752 -0.49467844 -0.3254202 0.03040915 -0.030462492 0.024239136 -0.3484592 -0.5337557 -0.13040242 -0.20159921 0.21214609 0.27687997 -0.17289528 0.30065736 0.9687834 -1.0615401 -0.1214324 -0.5418256 0.028809398 -0.10746851 -0.19268098 0.51821756 0.25472894 0.18782343 -0.05440049 -0.6025237 0.28152162 -0.13818161 -0.1318651 -0.1020354 -0.36400822
3220 0.29051074 0.6832391 0.5489416 -0.5719868 0.15462384 -0.7400021 0.47521275 0.25320065 0.4839159 0.5504173 0.57502985 0.16619897 0.20031911 -0.018717308 -0.01788464 -0.14158037 0.39109275 0.5916299 0.6251785 -0.24449342 -0.09924307 -0.11492276 -0.05576181 -0.4644253 -0.39182925 -0.2920361 0.14754486 -0.12456342 -0.078187205 -0.52958393 0.24349785 0.5141603 0.016224697 0.26461926 0.51109064 0.6734687 -0.30085307 -0.31287673 -0.43536186 0.3501792 -0.25513908 -0.42067876 0.16436826 -0.047256883 -0.48834878 -0.87120295 -0.2853866 0.37203863 0.1616003 -0.58151466 -0.14768232 -0.08046794 -0.20965362 0.5012563 0.49756745 0.6044695 0.10500551 1.1083387 0.2032763 0.14191367 0.18855551 -0.19456853 -0.4393249 0.151508 0.17949255 -0.079943076 -0.058305316 -0.34800324 1.0395786 -0.3246138 0.3960312 -0.49144882 0.8770491 -0.18695 -0.4050548 -0.34519866 0.29906157 -0.03215519 -0.7714441 -0.0327824 0.057053473 -0.2617855 0.20761457 0.094824016 -0.0816883 0.8941248 0.35444915 -0.15533105 -0.18275036 -0.12198691 0.12268031 -0.61844337 -0.31577888 -0.0635053 0.44982517 -0.10381063 -0.28578836 -0.401815 -0.2342339 -0.37142715
2653 0.07838827 0.14652118 -0.24016698 -0.09717357 0.09308967 -0.61973256 0.23473127 0.77953416 0.25313625 -0.77997947 -0.24791591 0.38774514 0.4027392 -0.055189718 0.2540629 -0.19960766 0.06650496 -0.24321419 0.9543839 -0.42681944 0.49852148 -0.767276 -0.0033276193 -0.35531542 0.044498827 -0.7827054 0.10137893 -0.511391 -0.20282942 0.027414812 0.029647434 -0.39460102 0.30058938 -0.16304377 0.40440005 0.5233795 0.20958893 0.10153333 0.3698511 -0.25121936 -0.2654314 -0.61585295 -0.01437714 0.17824529 0.1851558 -0.67849123 -0.32559803 0.42984465 -0.76145107 -0.053809427 0.21986175 -0.44970885 0.23272008 -0.22660314 -0.096421726 -0.16163671 -0.275727 0.11297905 -0.3152263 -0.23903826 0.37332925 0.045546953 -0.47681135 -0.10814461 0.8839961 -0.18195073 -0.24357264 0.051119167 0.37249655 -0.5412692 0.1445225 0.051322654 -0.045659438 -0.27308542 -0.118215375 -0.14158191 -0.5237851 -0.6923259 0.5016614 0.7603692 0.2930879 -0.11347665 0.10193895 0.6394356 -0.090879835 0.33493283 0.35527006 0.09907866 0.120925374 0.84893084 -0.049139813 -0.30457664 -0.23080464 -0.41900784 -0.18670546 -0.33557194 -0.2634369 -0.20953569 0.45550358 0.3879474
85352 0.74178326 -0.14087793 -0.50234485 0.3020568 0.34030265 -0.58412826 -0.65469366 0.49231032 -0.21433666 0.19070885 0.6814203 0.14194523 -0.1662771 -0.23572554 0.0058245957 -0.40193087 0.2969887 0.68486387 0.60769945 -0.23501197 0.029320184 -0.34415922 -0.46397963 -0.5004056 0.13070132 -0.8496383 0.2492352 0.09600523 0.15837838 0.2420129 -0.39735183 -0.23763807 -0.027222171 0.32326424 0.21833989 -0.21508187 0.5696958 -0.28561988 -0.055780724 -0.56973225 -0.3191878 -0.38273683 -0.615252 0.7239745 -0.44176197 -0.27662894 0.039321315 0.07515455 -0.16432586 0.04315562 0.01645792 0.17265627 -0.07548116 -0.30159065 0.733259 0.0053679156 -0.18967187 -0.066502295 0.081198804 0.38805503 0.090694144 0.28303525 -0.0026328915 -0.30024454 -0.21094352 -0.078636155 -0.5962576 0.079569705 -0.2544693 -0.088422656 0.026377784 0.5704236 0.26560053 0.13852513 -0.22861423 -0.20175935 0.60531974 -0.51502204 -0.34506968 -0.36286062 0.3263036 -0.31619567 -0.51838964 -0.029764615 0.07946252 0.27238312 0.12640722 0.6618008 0.146116 -0.045010477 0.057406504 -0.26719418 0.20190541 -0.0042922287 0.026595421 0.75344276 0.33139017 0.06188808 0.24751373 -0.29154763
643221 -0.038773943 0.4138012 -0.19562401 -0.3592792 0.02077264 0.07537471 0.055141054 0.13580912 0.33937183 -0.42290583 0.11640671 -0.58359236 -0.039274797 0.107610784 -0.5655331 0.5164581 0.22667816 0.011646072 0.012278053 0.6323361 -0.4887757 -0.089615844 -0.08005866 -0.39677206 0.08279333 -0.8948788 0.06979825 -0.32649338 -0.093422584 0.78776073 0.42642185 -0.99537057 0.654535 -0.26255623 0.5502658 -0.095119834 -0.038253322 -0.7931119 -0.9013504 0.095131494 -0.12796165 0.13236904 -0.84877807 -0.06323293 0.8635702 -0.06259049 0.21435697 0.9834689 -0.40721318 -0.5082945 0.070697516 0.8828673 0.20508571 -0.046867974 0.57166153 -0.33749998 -0.36380565 0.2422053 -0.004829903 -0.27394605 -0.56037664 -0.54196477 -0.060534734 1.2653672 -0.49473074 0.55073124 -0.07928357 -0.46135503 0.23422727 -0.3085599 0.2985729 -0.042097382 0.17657624 1.1468427 0.08947289 -0.56317794 0.47542694 -0.28751063 0.6996061 0.62157106 0.61924684 0.29817024 0.30906546 -0.48216957 -0.046182256 0.3275751 0.34116316 -0.5477115 -0.2793015 -0.056920808 0.4115082 -1.3280401 -0.36840582 -0.61133736 -0.4540579 0.57807636 -0.37006894 -0.116629034 0.5218971 -0.30011472
230879 0.29309753 0.51480126 -0.7554803 -0.01786873 0.31533703 -0.6964717 0.95355034 0.5307872 0.5416221 -0.67947197 1.1893579 -0.34237415 0.42986363 -0.61711025 0.131854 0.567461 -0.058051784 0.41089272 0.21978845 0.068198524 0.29181522 0.15635799 -0.3006256 -0.730944 -0.5121616 -1.3888278 0.03424137 -0.441066 -0.33436063 -0.8195988 -0.4772696 -0.1887468 0.66258156 -0.9506282 -0.7797075 -0.10747537 0.034290247 -0.13733238 -0.086067714 -0.6048333 -0.38173372 0.10100969 0.14578108 0.44859877 0.4017178 -0.46895266 0.37932396 -0.1882411 0.4528151 -0.2058694 0.18340275 -0.70331645 -0.03536241 -0.10321497 -0.1493003 -0.10127922 0.117435746 0.1889548 0.2772519 -0.29251802 -0.66204935 -0.17563894 -0.08358757 0.11723367 -0.10384728 0.43473077 -1.2312504 -0.95680946 0.7157171 0.005220519 0.12671024 0.48078695 0.13038659 0.90741235 0.2161556 -0.88705105 0.035692725 0.15775743 0.32740834 0.7487194 -0.49066737 -0.29114392 0.35688663 -0.1584916 -0.4656846 -0.659213 0.79805785 0.08386055 0.68186176 0.5285177 0.32322538 -0.16245577 0.4327195 -0.25992996 0.22973949 0.052566238 -0.1157046 0.8985717 0.030679349 0.09531654
1688 0.17959315 -0.14701168 0.18620469 -0.23498587 0.03775009 0.028999288 -0.035561435 1.2871147 -0.7847644 0.2695607 0.7900317 -0.13114396 0.014768383 -0.08418959 0.119213186 -0.44823983 -0.3078247 0.3133307 0.45481095 0.4414864 0.17974693 -0.065742865 -0.19382392 -0.5960474 0.3827212 -0.4232331 0.4412288 0.42941016 0.16934456 -0.36868054 -0.34307975 -0.548096 0.056943465 0.37420452 0.17801824 0.15847734 0.35480064 -0.68274164 0.32825541 -0.51219547 -0.5699672 -0.13289751 -0.40187696 0.5525553 -0.1611472 0.18043555 0.011403354 0.63693714 -0.26890618 -0.015827332 0.30149123 0.1607023 0.0044681067 -0.40077528 0.77097857 0.095043294 -0.35146368 -0.51713765 -0.27515882 -0.51382285 -0.056350417 0.044839326 -0.15790442 -0.24565676 -0.37533185 -0.0794339 -0.26300752 -0.17871666 0.03942248 -0.019390054 -0.3429758 0.52262926 0.122005284 -0.009845197 0.031438787 -0.2586879 0.63149726 0.05372723 -0.18137713 0.11566907 0.121089466 -0.57171845 -0.84389263 -0.28955278 0.012530397 -0.14709875 0.2625781 0.05327111 0.46340567 -0.09185236 0.59547806 -0.40246826 -0.30870458 0.13684283 -0.2548937 0.29460806 -0.16600862 -0.25483197 0.40569833 0.17208697
2658 0.81416506 0.27492172 -0.84567654 0.33826503 0.36546665 -0.3885813 0.38649756 0.18875985 0.63791627 -0.45175928 1.1440582 -0.48225427 0.3241404 -0.6980177 0.36444077 0.9221191 0.07741652 0.49271423 0.24499254 -0.094218455 0.27699432 0.5143757 -0.17670417 -0.8959851 -0.7286985 -1.2332978 -0.17937617 -0.35412565 -0.1775894 -0.8741145 -0.43143737 -0.50215507 0.61010706 -1.2299289 -0.80624646 -0.0076074298 -0.011974461 -0.09213365 -0.7272982 -0.36303133 -0.14636013 0.11785653 -0.011931808 0.6140074 0.48767748 -0.25843754 0.37608787 -0.27901414 0.27468267 -0.23398006 0.15336208 -0.3640457 -0.28330782 -0.49314684 -0.28348488 -0.054620992 0.2596752 0.38557348 0.41697022 -0.4854823 -0.43644828 0.17026469 -0.16357474 -0.036278974 -0.19326597 0.39587 -1.2003268 -0.9062222 0.59126854 -0.11517819 0.12944838 0.41737977 -0.13695882 0.95405126 0.2502568 -0.6632132 -0.3273981 -0.11186213 0.111968145 0.7672406 -0.50689876 0.04431946 0.22477204 -0.030580359 -0.7371901 -0.5203716 0.48240507 0.20555623 0.51775336 0.43191496 0.1613582 -0.01419525 0.32836452 -0.043886326 0.4273363 -0.025483763 -0.22324555 0.7569034 -0.106117636 0.0743721
23738 -0.38904005 0.72030866 0.30305114 -0.7759498 0.37183782 -0.37714225 0.25222912 -0.066090755 -0.44299966 -0.52655965 0.39997867 -0.3592222 0.8413639 -0.33679396 0.44208243 -0.019212646 0.5681657 0.2793081 0.3115005 -0.40863588 0.08769375 -0.6047236 -0.14506 -0.20081721 -0.13489333 -0.86015016 0.20555468 0.07253733 -0.75720096 0.04350874 -0.076149486 -0.278623 -0.050471216 0.148443 0.502329 0.44584805 -0.322344 0.13142756 -0.3318855 0.33744982 0.2416178 -0.6423243 -0.49378818 0.67544335 0.26053804 -0.2321893 -0.5431703 -0.34443185 -0.25658128 0.0021308314 0.07408139 0.17080721 0.25737485 -0.44616866 0.35586682 0.27649844 -0.24925916 0.20144328 0.031764023 0.0242904 0.3439178 0.2636586 -0.34448728 0.12946661 0.15162988 -0.10204032 0.1373726 -0.059256036 0.4128106 -0.15359846 6.503518e-05 -0.5902411 -0.12358092 0.05891221 0.12042416 0.5115266 -0.3066532 0.2925869 0.067712635 0.19020693 -0.61160094 -0.23703387 0.3179462 0.31674424 -0.41780517 0.0003344784 0.06942497 0.46199262 -0.16020441 -0.1337539 0.06740104 -0.46419832 -0.5725299 0.31263584 0.4783206 -0.21470748 -0.22845352 -0.6413752 0.34237823 0.3435092
10796 -0.0016323727 0.35049906 0.28595945 0.38987216 -0.20141286 -0.36266145 -0.1494391 0.20204432 -0.20248522 -0.34882227 -0.8197166 -0.68157357 0.109607466 0.117458075 -0.27194425 0.027548606 0.20398311 0.34754163 -0.19762652 -0.2992124 -0.2649264 0.1905588 -0.020415377 -0.5195014 -0.29208457 -0.9961256 -0.095114075 0.19533518 0.07114337 -0.5237064 0.011346488 -0.37919703 -0.4594575 0.1072115 0.11359879 0.22228342 0.39677438 -0.1496463 0.5047901 0.26069954 0.09641663 -0.040935185 -0.07453134 0.039755635 -0.45636097 -0.20054027 -0.35274136 -0.30638665 0.59492135 0.094221905 -0.07107698 -0.004586479 0.03405281 -0.028111296 0.22989236 0.38957727 -0.0659119 -0.21925518 -0.6117937 0.025450137 0.42351326 -0.009186106 -0.6997999 0.18366233 -0.5165259 0.3172991 -0.04770503 -0.10744396 -0.1889134 0.15628369 0.8203261 -0.11089512 0.07052718 -0.14868243 -0.24724646 0.27443314 0.35974985 0.52765226 0.39545226 0.5957386 0.41318548 -0.12309714 0.63310635 0.25638923 -1.0321493 0.11029909 0.27590635 -0.6078254 0.20904094 0.12750448 0.10377286 -0.20934808 -0.082918085 0.053167697 0.38329545 0.29376274 -0.1779274 -0.85174924 -0.17648195 0.049571022
39127 -0.51384676 0.55618525 0.24339332 -0.063381694 -0.6254864 -0.389623 0.28214234 0.12992357 -0.11983137 -0.59194577 0.42482242 -0.6197944 -0.049743034 -0.5116782 0.14761242 0.25585628 0.7714022 0.79673487 0.39397413 0.16147177 -0.633427 -0.13660045 -0.359021 -0.98071975 -0.16783188 0.07353 -0.76402485 -0.18781239 0.2959152 0.015081151 -0.60743564 -0.7395443 -0.1657371 0.28758222 0.5878538 0.22819766 0.29944754 0.02992018 0.28496835 1.1362808 -0.4258963 0.30600888 0.51024354 -0.37234086 -0.34019735 0.033393975 0.18272372 0.24786338 0.34710228 -0.3231216 0.5270466 -0.32491183 0.06428562 -0.04784999 0.6857086 -0.59879166 0.07404965 0.42130628 0.39987722 -0.19055623 -0.07235784 0.49814057 0.10863011 -0.079801776 0.51032543 -0.45556337 -0.77414525 -0.87542933 0.15854737 -0.025375051 0.503867 -0.33713838 0.6552971 -0.1207164 -0.022658464 0.46980548 0.12865043 0.06857023 -0.51787627 0.22956546 0.082663916 0.1689162 -0.20170976 0.41441807 -0.36176577 0.8533215 0.18819675 0.14718394 0.49578547 0.31777665 0.2517951 -0.5895902 -0.15682037 -0.14223658 0.15541814 1.1892105 -0.92809707 0.47663698 -0.34731686 -0.33989388
4804 0.01840996 0.3847898 -0.3111843 -0.09410247 -0.31835502 -0.7636875 0.21158174 0.4378837 -0.039443757 -0.1490278 0.0053992155 0.15799314 0.30678454 -0.3528228 -0.06607648 -0.25678515 0.12851931 -1.0541725 0.90211403 -0.4113288 0.31526825 -0.26623607 0.1548439 -0.47231 0.35252035 -0.21748275 -0.09097638 0.27716285 -0.41750246 0.33745015 0.30997077 -0.24761066 -0.32144955 0.044616356 0.4667204 0.45987222 0.4202315 -0.19138269 -0.30297735 0.8087095 0.18577404 -0.32007915 0.40730256 0.18608274 -0.0043354277 -0.4916743 -0.23818958 0.55430025 0.13135871 -0.11724654 0.1355973 0.5831827 0.23281921 0.01615826 -0.06921881 0.27870053 0.3132295 0.34379128 -0.008764371 0.18659778 0.20075403 -0.2933678 -0.11097731 0.12504566 -0.62101054 0.3536903 -0.6710285 -0.047809806 0.59883344 0.45239314 0.09960988 0.46412092 -0.24146932 -0.1045226 0.21800084 0.2961789 0.17593905 -0.4690729 -0.012857915 0.6328327 -0.14776185 0.18495974 0.44574547 1.0534391 -0.5530145 -0.32637712 -0.13134708 0.8899207 0.48841226 0.019516405 0.34486324 0.288659 -0.596297 -0.4055763 -0.42239887 -0.005881343 -0.12218331 0.32593176 0.51266676 0.51906633
2696 0.38708627 0.77603585 -0.63954026 0.04285265 -0.1490484 0.0978642 -0.16731529 0.37006417 0.19861634 -0.16544457 0.48026812 -0.32032076 0.5581919 -0.06628747 -0.7685092 0.1545762 0.16492556 0.66327673 0.28270057 -0.14497453 -0.11930675 0.1496721 0.49239492 -0.17256176 -0.19160709 -0.36258426 0.22668813 -0.20798972 -0.08282837 -0.1994587 -0.4679085 -0.16485542 0.23486389 -0.22249863 -0.17701262 0.48890328 -0.27426687 -0.51125526 0.065934315 -0.32203785 0.29150522 -0.99477684 -0.03968989 0.66389906 -0.2722398 -0.30878946 0.074086 0.44146675 0.45805404 -0.950533 0.54218715 -0.33218065 -0.799283 -0.5174704 0.17890513 -0.8057599 0.21691601 -0.38058975 0.70486873 -0.30455193 0.077730864 -0.6631449 -0.20183107 0.42032805 -1.0323172 0.3601379 -0.81811774 -0.81194144 0.17652456 1.2338943 -0.11680709 0.21507166 0.3374701 0.93361276 -1.1298012 0.4247355 -0.4177575 -0.027535316 -0.2597032 0.11949677 -0.24809077 0.12520266 0.5610887 -0.5881217 -0.06645813 0.2846872 0.7240691 0.64506364 -0.36579606 -0.0767435 0.5566671 0.30924731 0.22521889 -0.011877328 0.009227027 -0.79559684 -0.0991921 0.5130671 0.3530086 -0.3020583
4335 -0.596478 0.28116575 -0.5040809 -0.8092327 -0.013798141 -0.30395794 0.16605729 0.10408235 0.4879061 0.46162638 -0.3589434 -0.36636275 -0.11588108 -0.3309711 0.4961582 0.11214333 0.07095967 0.34824985 -0.5278261 0.48340014 0.0054465253 0.09188426 -0.5028618 -0.21620274 -0.92678857 -0.3825259 -0.009639838 -0.20984176 0.36782843 -0.57801354 0.60428673 -0.90728086 0.11037805 0.00798103 0.22368346 -0.18102458 -0.23675664 -0.2755354 -0.40221235 0.12987721 -0.21250778 -1.3966326 0.40919575 0.8835303 -0.08258982 -0.41873378 -0.06995624 0.5270556 -0.50793093 -0.08755752 0.4099854 0.24394415 -0.030861296 -0.4849091 0.26138058 0.023157297 0.13573207 -0.2696581 -0.17591974 -0.5122889 -0.00927892 -0.26099592 0.115664415 0.20495567 0.44264787 0.52524525 0.12133135 0.07965974 0.36236674 0.30802235 0.5008996 0.36000544 0.0101073915 -0.21583636 -0.36786738 -0.30112943 -0.01606708 -0.3905289 0.42226148 -0.52804804 0.25007987 -0.22817534 0.69814557 0.33215618 -0.600834 0.1022776 -0.005576696 0.3725914 -0.2908531 -0.30149332 0.116858825 0.083640024 -0.1419302 -0.23282252 0.4656143 0.6869051 -0.6976618 0.11384688 0.35497525 0.24409877
642894 0.28314728 0.34270996 -0.003816411 -0.48092544 0.007874287 0.05132392 0.086685866 0.17192604 0.3388007 -0.3529362 -0.1350498 -0.2630508 -0.35877576 -0.025949461 -0.5228906 0.3490322 0.65604734 0.1887849 0.31330007 0.6809646 -0.7432408 0.12888134 -0.36323082 -0.7737004 0.3502618 -0.9530961 -0.13342774 0.20219892 -0.25786003 0.7909767 0.51603585 -0.96672547 0.98370963 -0.22997954 0.42164943 0.082573086 -0.5454315 -0.46281967 -1.2997825 0.09931632 -0.09441268 -0.019036636 -0.999782 -0.080529355 0.7347935 -0.25224894 0.5432514 1.2188189 -0.17791091 -0.1593834 0.3877377 0.72767067 0.5115248 0.15147044 0.5657094 -0.42886823 -0.39490476 0.051035948 0.22700033 0.14762238 -0.69724905 -0.5703783 -0.37365115 1.4143826 -0.84301263 0.40418196 -0.41158822 -0.01861227 0.026539704 -0.31453666 0.6214152 0.22931959 -0.061545182 1.0681846 -0.14494221 -0.6683465 0.26491502 -0.09462832 0.7521333 0.30970752 0.84110284 0.6880025 0.39009288 -0.15454932 0.08354332 0.3601234 0.7348352 -0.1852593 -0.28371832 -0.08102025 0.523464 -1.0152028 -0.23666537 -0.47012419 -0.61630934 0.7552259 -0.121547736 -0.32293242 0.35743982 -0.15841609
6334 0.3626213 0.2612826 0.08665174 0.36324933 -0.38553914 0.15423386 -0.3683736 -0.046868533 -0.03605259 -0.11097876 0.12063265 0.082772665 0.5729084 -0.17351712 0.15062124 -0.19602123 0.15395202 0.40952772 0.63342506 0.17988251 0.19449607 -0.060832355 -0.76995486 -0.56051344 -0.10469149 -0.06988815 -0.49473143 -0.2794244 -0.09202113 -0.2837262 -0.4429027 0.59381723 -0.1505062 0.038697988 0.35214698 -0.022357909 0.12221485 -1.0375704 0.28021562 0.4458526 0.23402111 -0.5870161 0.38999042 -0.07548911 -0.2006513 -0.667643 -0.38361183 0.36848968 0.12669645 -0.12375495 -0.055541456 -0.00039874838 -0.15116593 -0.12078077 0.2046099 -0.13542695 -0.7614029 0.2114385 0.021836277 -0.005526743 0.08774177 0.12242696 -0.19362386 0.16106802 0.46419293 -0.11687494 -0.71134204 -0.3388654 0.5551657 -0.36319852 0.25149646 0.44607362 0.08283402 -0.16521147 0.60064876 0.46475598 -0.15887292 -0.16431004 -0.16320246 0.4047897 0.19046323 0.16086712 -0.1333564 0.4196176 -0.2580142 0.5850144 0.6451668 -0.5440495 -0.38373667 -0.5063429 -0.012027784 -0.537206 0.07829394 0.1046026 -0.10528543 -0.34815353 -0.9674924 -0.10887867 0.42364067 -0.48938805
16819 0.15314502 0.10019126 0.07878839 0.18155555 0.4068623 0.059056483 0.016871762 0.16498275 0.03969141 0.03185466 0.31394386 -0.43286964 0.53955823 -0.14245401 -0.08280359 0.36145046 0.18823507 0.35544345 -0.17045131 0.72565025 -0.39803827 -0.15196662 0.12276479 -0.52068895 0.33251056 -0.64440143 -0.24978894 0.061010513 -0.48120746 0.6755311 1.1999518 -0.81453156 0.751405 -0.6607468 0.44382232 0.3439733 0.786831 -0.5293655 -0.79422003 0.536404 -0.419449 0.3959248 -0.085672356 0.034173433 1.002115 -0.35846063 -0.022386307 0.2535994 -0.22190437 -1.0510162 0.07444661 0.81420606 0.5222451 -0.18649599 0.17320485 -0.2657885 -0.2141885 0.33204934 -0.2469753 -0.010269847 -0.36650276 -0.37838203 -0.12824641 1.1741208 -0.29171327 0.13980791 -0.049901515 -0.62067527 0.22159787 -0.034568485 0.20940931 0.041673683 0.36029038 1.0092181 0.18960027 -0.34508523 0.18042864 -0.41004327 0.8141676 0.38879478 0.47557476 0.77166104 0.48174796 -0.67204815 0.10241317 0.2877839 0.4875807 -0.20125839 -0.57058406 -0.36076015 0.16224085 -1.0540434 -0.68812406 -0.059746265 -0.7403604 0.7749952 0.33598185 -0.5687008 0.1589855 -0.113807224
117 0.0066885944 -0.1735163 0.054897193 -0.08056148 0.08035232 -0.027186118 -0.16799223 0.19396141 0.2027404 -0.7277327 0.29817694 0.3437749 -0.28074774 -0.014528872 0.41427732 0.16329707 0.56204635 -0.41643724 0.431983 0.097516365 -0.4497296 0.11738181 0.032900296 0.20702377 -0.40945426 -0.4099338 -1.2669764 0.20098884 0.14670624 -0.09130616 -0.088147864 -0.33897966 0.4191102 -0.058897614 0.4401173 0.12176906 0.8655861 -0.48394 -0.1865451 -0.28290257 0.028884541 -0.03520008 0.40726712 0.46019647 0.10061424 -0.5630794 -0.50541216 0.0049658995 0.23510885 -0.11345411 0.015714318 -0.06734996 0.48055995 -0.73783094 0.028757505 -0.27945873 0.16863312 -0.17821579 -0.6172566 0.049506813 0.47954282 -0.31900874 0.49560001 0.88881356 0.019246904 -0.1345369 0.16448577 0.29786137 0.591616 0.21194011 -0.0019991593 0.07114634 -0.04948588 0.2609139 -0.081822105 -0.044096828 0.88187474 0.24900618 -0.3372181 0.6467995 -0.23551226 -0.34569898 -0.07791367 -0.13120776 -1.1942115 -0.07740158 -0.17970103 0.0821857 -0.13974214 0.426532 0.14949857 0.07267916 0.1480633 -0.30996644 0.3781953 -0.07942992 0.32978863 -0.13171689 0.1941669 -0.16137414
54129 0.06793409 -0.14375618 -0.26581824 0.21855754 0.8690753 0.23595197 -0.48160797 0.36081892 -0.7538254 0.16802207 4.7240275e-05 0.24815296 -0.037377678 -0.5415934 0.066821784 0.014577246 -0.08283475 -0.0158766 0.42347836 0.15270206 0.3213237 -0.35441184 0.26799074 -0.5483791 -0.2434492 -0.31558886 0.27565753 0.10622204 0.11583282 -0.22203195 0.13614178 0.18642282 1.3521067 0.36514735 0.16670482 -0.38361803 0.52185404 -0.5499621 -0.20908543 0.20638359 -0.41943672 -0.039117772 -0.21652955 0.37077942 -0.21124463 -0.29404563 -0.3426025 -0.064686745 -0.33910435 -0.0012809102 0.00036933622 -0.09540245 0.2086718 0.014084611 0.73000425 -0.4620945 0.16293888 0.06664078 -0.48553023 -0.32898176 1.0489048 -0.12632854 0.12929618 -0.10986793 -0.76724386 0.17345157 -0.6579672 -0.1422244 -0.34562173 -0.04371744 -0.06344167 0.40339825 0.03362923 -0.3833098 -0.6839212 -0.34251228 0.19398673 -0.24691461 -0.025434574 -0.021654852 0.28010213 -0.1390879 -0.38755497 0.19065422 -0.2840481 0.6841047 0.65585387 0.21090518 0.32674864 0.041640878 -0.40319487 -0.13228382 -0.6374516 1.0887321 -0.32251954 0.17230807 0.10471174 -0.2949607 0.46760824 -0.46386287
210871 0.6616524 0.35786688 -0.047662314 -0.039485633 0.3795104 -0.20103551 -0.163706 0.5682246 0.030559681 0.1725729 0.0067931865 -0.09553664 0.55434406 -0.1431456 -0.18579291 0.36570752 0.10835696 -0.14026791 -0.18850034 0.017140703 -0.34413424 0.0015764785 -0.05928558 0.08701138 -0.17194903 -0.82469666 0.25351423 -0.11453924 0.5757095 0.005354227 0.3531886 -0.2872225 0.19346425 -0.093463846 -0.34838754 0.27539665 0.42947397 -1.0767388 0.2850471 -0.32484856 -0.21664266 -0.13169548 -0.27664426 0.46974877 -0.24013092 -0.17369482 0.082440734 -0.19510739 -0.24024022 -0.15650013 -0.049791053 -0.08193017 -0.18090977 -0.018703451 0.29601136 0.028496755 0.117864944 -0.047411487 -0.62550366 0.3157168 0.28144026 -0.06345483 0.10194303 0.38216445 -0.29450378 -0.4141577 -0.7885677 -0.54381096 -0.03462846 -0.270773 0.25056604 0.6319535 0.05821363 -0.41246438 0.077571265 0.06402744 0.052266616 -0.08514225 -0.104510546 -0.5236269 0.27712062 0.33656836 -0.83574146 -0.22478957 -0.48221427 0.21121301 0.22854255 0.15207715 0.47401544 -0.21939427 0.37528235 -0.22600324 -0.052575625 0.7023487 0.21418484 0.474194 -0.104483694 0.08798138 0.28388533 -0.19536602
35922 -0.44343433 1.0331784 -0.22648557 -0.5433668 -0.27874634 -0.37349963 0.4148899 0.45792946 0.22461945 0.31308007 -0.24815474 -0.5198658 -0.37659073 -0.8533117 0.56647456 0.17146373 -0.15145588 0.24649048 -0.2742151 0.48609304 0.3043924 0.43005782 0.09253175 0.12339328 -0.49486554 -0.68252087 -0.6021276 -0.21153998 0.4884413 -0.86037487 -0.027274473 -0.14686438 -0.27018887 0.008335484 -0.107210636 -0.15496454 0.70007396 0.30187657 -0.6596256 0.39909258 -0.22011933 -0.4312 0.2670619 0.92546827 -0.11556065 -0.0776406 -0.5236293 0.9880788 -0.3298727 -0.36550283 0.44104835 0.70400333 -0.38882977 -0.5166151 0.15745914 -0.024289781 -0.02417896 -0.009888456 -0.24798207 -0.43662006 0.025816835 -0.21790923 0.3699786 0.08122519 0.24528466 -0.028687732 -0.04259235 -0.07294553 0.15369348 0.8998406 0.007280008 0.06658943 0.33416265 0.17097889 -0.4689904 -0.58411187 -0.31075957 0.11903607 0.29213965 -0.5196622 0.55741423 0.023829533 0.24991119 0.49180046 0.14643879 -0.22814408 0.8275793 0.2264262 0.039771836 0.2467421 -0.36696613 0.08014833 0.21378805 -0.31441665 0.12685092 0.16487807 -0.6121115 -0.38218164 0.052821405 0.20076954
54131 0.0039264476 0.34840885 -0.7191416 -0.23995835 0.26306072 0.27296937 -0.64960504 0.12705286 -0.27743426 -0.47422725 0.31364405 0.33291748 -0.09559155 -0.3887489 0.023779232 -0.018009221 0.3225902 -0.06940928 0.13945293 -0.109366335 -0.0998522 -0.2806433 0.16369066 0.117525086 0.36594132 -0.9661027 0.5286328 0.47031477 -0.1591426 -0.50431454 0.2675332 -0.48994803 0.19767793 0.530058 0.20388295 0.18076226 0.64687 -0.0020239013 -0.07123119 0.35540426 -0.395618 -0.5457887 -0.32744175 0.3810154 -0.19896364 -0.2643319 -0.16381545 -0.047228258 -0.050461788 -0.2588453 0.23799312 0.08230825 -0.2577734 -0.15039538 0.7224074 0.24833186 -0.16804877 -0.21996543 0.001372435 0.09698418 0.027999083 -0.33689445 0.20648205 -0.17279306 -0.41051152 0.1666523 -0.48553693 -0.66549224 -0.014076412 0.02451413 0.47756347 0.521269 -0.04866526 -0.3067486 -0.25848678 0.45899963 -0.09541021 -0.371588 -0.07361433 -0.580894 0.029982822 -0.32518914 -0.7589058 -0.32879177 -0.3449397 0.708052 0.1381236 0.2780412 1.0586088 -0.14925303 0.20902714 -0.48386487 -0.4342444 0.16176267 0.41187742 0.111950405 0.29513505 0.19057737 0.41398543 -0.78617483
34257 -0.503182 0.61442846 0.3116347 -0.62748027 0.12663707 0.5184592 -1.1261601 0.45019236 -0.24406715 -0.24899976 0.33639514 1.1786308 -0.107187636 -1.2386018 -0.31222767 -0.11624044 0.2941374 0.59777194 -0.84087723 0.29986146 0.62918574 0.12220569 0.30470765 -0.69124496 -0.1548966 -0.35063365 -0.82148 0.18618494 -0.68858355 -0.1851919 -0.6633716 -0.69937533 -0.05066678 0.4018791 0.28116608 0.46375448 -0.21357417 -0.67464334 0.43560702 -0.21414636 -0.23136769 -0.07541907 0.272558 0.38942477 -0.55135536 -0.30462402 0.006230166 0.7782867 -0.6420369 0.4129574 0.7093704 -0.73590845 0.34320772 -0.22884652 0.43469477 -1.2942128 0.84814703 0.07126002 0.17182918 0.6741044 -0.36275285 0.10733165 -0.22148897 0.2451041 -0.74065274 0.17256026 -1.3004879 0.009759619 1.4892892 -0.3827337 -0.5061757 -0.2936937 -0.28998265 -0.8646169 -1.1199666 -0.28891426 -0.6609447 0.74595326 -0.26373327 0.61736256 -0.10250105 0.030485896 0.1309125 0.08162461 -0.37304568 -0.5823965 0.50374436 0.3164214 0.29185048 0.20717241 -0.22485845 -1.0812804 -0.72461027 -0.7826346 0.27328113 0.033972267 -0.25936288 -0.80057234 -0.22931561 -0.11085116
5348 0.26085284 0.5757399 -0.4815879 0.04126417 -0.07639103 0.42478874 0.027480258 0.46947706 -0.0669388 -0.38937366 0.71177477 -0.19340385 0.498987 -0.2263688 -0.60982656 0.181414 0.43263254 0.50432503 0.32521245 -0.25960374 -0.21233152 0.09986399 0.4765836 -0.395386 -0.025863975 -0.38752598 0.015002263 -0.27539858 -0.057704978 0.2393156 -0.29840687 -0.22711131 0.18863054 -0.31336486 -0.31776646 0.37321076 -0.20090036 -0.77180517 -0.012468644 -0.3836533 0.4467355 -0.86633945 -0.07737665 0.61163014 -0.27022377 -0.32281145 0.2634628 0.101258725 0.2479253 -0.9330808 0.6575555 -0.84473616 -0.6527745 -0.16317055 0.15644087 -0.75894207 0.30921796 -0.3823071 0.4942542 -0.38441676 0.056529794 -0.7719769 -0.0046961564 0.4135085 -0.4411148 0.45327106 -1.017564 -0.7112502 0.19081298 0.9586274 -0.0063121635 0.008970165 0.69008785 0.90161556 -1.1478155 -0.47757563 -0.36515948 0.05153657 -0.3785701 -0.0073259007 -0.06804534 0.083306745 0.8352269 -0.7116149 -0.33311448 -0.16487934 0.7654179 0.66224355 -0.16252784 -0.2739499 0.36525667 0.40228963 -0.4165888 -0.16515207 0.22240023 -1.2850313 -0.21790643 0.3923599 0.44667408 -0.04000197
3218 -0.014798595 0.26489812 0.3622343 -0.5074931 -0.27048284 -0.6639476 0.060770806 0.43792588 -0.3548223 -0.4167657 -0.40009567 -0.45075423 -0.09475718 -0.32250404 0.2393846 0.21852568 0.4741433 1.0108411 0.24042434 0.2576377 -0.5958795 -0.45438054 -0.52904373 -1.0894672 -0.14769457 -0.42924833 -0.6849948 -0.19746098 0.087466545 0.010271782 -0.062157635 -0.34583688 0.035960987 0.22124398 0.81096077 0.21992227 -0.055412836 -0.13571304 0.5062973 0.41677347 -0.007997304 0.36528832 0.18762043 1.0098698 -0.07363795 -0.021497099 0.34320137 -0.031219108 0.37191543 0.49666336 0.24788688 -0.011646024 -0.17567067 -0.7435728 0.8090037 0.22156236 0.074117705 0.58664596 0.26210907 -0.1663431 -0.47499132 -0.15145768 0.060237385 0.49751297 0.22328648 -0.0729561 -0.60388213 0.1293193 0.17546192 -0.3919859 0.048414968 -0.12253412 0.051617313 -0.50131375 0.4693266 0.28543422 -0.3330267 0.4546028 -0.17103626 0.18292353 -0.44380248 0.585966 -0.15901375 0.1939291 -0.6156825 0.31503958 0.01972145 0.7053944 0.04580789 0.2602112 -0.032692816 -0.07818718 0.14588954 0.722409 -0.068835 -0.29730126 -0.29675192 0.1353797 0.56730515 -0.29983214
35061 0.5016958 0.38063467 0.028253425 0.14507736 0.62497777 -0.46269098 -0.82348275 0.67324275 -0.39995593 0.2102052 0.4357538 0.19260235 0.30343914 -0.5189435 -0.32379782 -0.06661173 0.4095289 0.32228062 -0.24932906 -0.4371507 0.36634904 0.18599822 -0.2030228 -0.09520345 0.26340583 -0.79185236 0.22795206 -0.017027475 0.43287686 0.25202757 -0.041026875 -0.3065853 0.42425245 -0.20402928 0.086391054 0.0252074 0.48096687 -0.62119263 0.06428917 -0.3486969 0.12837225 0.30805513 -0.07535717 -0.074359916 0.27557233 -0.027799327 -0.09795526 -0.22192514 0.076052025 -0.26640102 0.3236645 -0.22077528 -0.66326123 -0.28626496 0.112642094 -0.12757939 -0.1670941 0.21038097 -0.58373696 0.0281641 -0.071517125 0.23634265 -0.11120317 0.15799871 -0.5501737 -0.10731626 -0.15561289 0.1416901 -0.03441808 0.3370024 0.16085857 0.20999552 -0.005514949 -0.27515295 0.09333877 -0.3077112 -0.13542436 -0.27240112 -0.14641015 -0.6109535 0.22172444 0.38707423 -0.41432786 0.23368843 -0.4646883 -0.07530533 -0.2702358 -0.057923682 -0.057975095 -0.06374173 0.13417871 -0.5924795 -0.4410636 0.35883597 0.8753908 0.5145204 0.045870166 0.08743142 0.9771832 -0.5557524
35797 -0.39616486 0.23575881 0.39420623 0.1868491 0.7240144 -0.0890369 0.028107317 0.25013262 -0.37963942 0.16242588 0.4704164 0.44093323 0.33490533 -0.40660807 0.09353267 0.14242133 -0.46085677 -0.16583833 -0.15057315 -0.44926926 -0.19596514 -0.7218151 -0.18694685 -0.95765764 -0.18341 -0.71306485 0.42538664 -0.22404492 0.3543964 -0.18087229 0.19050288 -0.31303963 -0.26817486 -0.35450655 0.06721371 -0.012176035 -0.26166496 -0.21655919 -0.15501846 -0.45812568 0.052538242 0.60233337 -0.08840911 0.34200612 -0.3661498 -0.6164083 0.06245011 0.17555697 0.16939068 0.18017489 0.30179417 -0.08343865 0.053817324 -0.44404706 0.7043956 -0.2174269 0.20768984 0.08785458 0.20194222 0.20284228 -0.5131732 0.3448356 0.64676005 0.08746285 0.5130952 0.9164711 0.08600386 -0.50776654 -0.0072183064 0.35315675 0.1200737 0.4146347 0.51627344 -0.11635786 -0.9120561 0.5421453 0.44069928 -0.21242432 -0.44381154 -0.26469406 0.7670397 -0.15667991 0.8366496 -0.15157917 -0.64268994 0.43280903 0.2867004 0.007016232 -0.21900697 -0.122050546 0.5061735 0.12583487 -0.07791244 -0.033243343 -0.12621705 -0.54571897 -0.06014789 -0.21186318 0.17347272 0.30833918
89547 0.3099273 0.31979528 0.19114923 0.39295802 -0.044746228 -1.2173688 0.20827429 0.7837089 -0.39988256 0.09530892 0.5263374 0.36367348 -0.3377154 0.06395042 -0.16410962 0.23458208 0.23636253 0.3170147 0.5552331 0.0012941867 0.5426452 -0.15696579 0.49240127 0.13608651 0.21393232 0.0033858956 -0.10804471 0.13408026 0.008345893 0.5291583 0.46811742 -0.5002546 0.35585523 -0.23833533 0.31461537 0.15574482 0.62828714 -0.88531065 -0.65883774 0.6799537 0.08190922 -0.077648565 0.48800716 -0.23243093 -0.16203006 -0.0592861 -0.885445 0.11732007 -0.16241995 0.069811314 -0.06076828 0.1479739 0.11966093 0.39384958 0.2922924 0.1033415 -0.21569487 0.2212318 0.22962216 -0.17773078 0.25902438 0.23635525 0.20348573 0.060902067 -0.4695203 -0.5653477 -0.17913362 0.4033647 0.64883626 -0.32584465 0.016544746 0.5037026 -0.9568494 0.0649104 -0.42554834 0.34211603 -0.10451497 -0.16079712 -0.15812679 0.45522773 0.023566209 0.3289026 0.11608161 0.655893 -1.2373664 -0.4423645 0.38878387 0.32444757 -0.40951636 0.20807613 0.29252008 0.3846173 -0.027962621 -0.16155742 0.2476922 -0.41334558 0.078779615 -0.2709332 -0.17687798 0.06759307
18777 0.32111531 0.32027975 0.43981904 -0.6241027 0.45078897 0.4530319 0.47086135 -0.06597272 0.10750789 -0.1941146 -0.4879829 -0.2603003 -0.56521595 -0.07853627 0.21590804 0.406207 0.25691998 0.04229943 0.50140345 0.42534196 -0.29327118 0.2648611 -0.048397284 0.38621864 -0.9793049 -0.36763847 0.014262602 0.88119084 0.3138336 -0.17760769 0.2976884 -0.71073294 0.093300775 -0.23737179 0.381713 0.2685676 0.21713944 -0.52345914 -0.5443576 -0.01644361 -0.077985 -0.41845235 -0.060379907 0.74772835 -0.25448808 -0.21034889 -0.123027876 0.1909578 -0.5126724 -0.36392003 0.22993912 0.16551702 -0.09251122 -0.9614436 -0.15400156 -0.8103753 -0.39491174 0.13815126 0.30905846 0.08639684 -0.3573474 -0.23582008 -0.12131616 0.54315716 0.45912808 0.35786858 -0.46684775 0.42688668 0.08092417 0.31251273 -0.06488403 -0.20785251 -0.1769038 -0.7294148 -0.0022746562 0.14961222 0.26875454 -0.32556015 -0.6358024 0.6807453 0.08118891 -0.007611823 0.20961471 0.23909332 -0.8663516 -0.27175835 -0.31995752 0.6718857 -0.6057909 0.016688524 -0.0075245025 0.053476736 -0.021695081 -0.42242488 0.4028255 0.4481673 -0.27199727 -0.3662558 0.8601182 0.2705851
28350 0.07956075 -0.14805593 0.093534134 -0.045742054 0.25844413 -0.26872924 -0.5321654 0.60394 -0.4106092 0.34196588 0.25278416 -0.14539313 -0.038556308 -0.12120535 0.28533104 -0.15599908 0.6029446 0.425658 0.14190225 -0.16573465 -0.45046994 -0.1747429 0.503266 -0.1437858 -0.828144 -0.13566257 -1.046824 0.50870895 0.13004003 0.38858348 -0.14776842 0.07369258 0.33066955 0.07585568 0.12743369 0.12613331 0.2422563 -0.6292881 -0.7405682 -0.26195756 0.14372125 -0.3177425 0.31606868 0.17177273 -0.03829106 0.5585512 -0.5416131 -0.050281096 -0.08620942 -0.18979432 0.51988655 -0.12127634 0.09551063 0.29219922 -0.3120513 -0.25452387 -0.3135974 0.0026090792 -0.48097196 -0.34583968 0.61997145 -0.14463122 -0.11052919 1.1155392 -0.45245057 0.20375866 0.148253 -0.17228714 0.79691935 0.12866573 -0.048764408 -0.118852936 0.03133687 0.0992083 -0.30608013 0.32170498 0.291073 0.52417904 -0.61073893 0.42222446 0.1206261 -0.11837246 -0.23147413 -0.284728 -0.5680303 -0.028839927 0.054134294 0.20577992 0.78662616 0.7946067 -0.04344162 0.0023871867 0.5450542 -0.11801 0.22164352 0.59034485 0.03380322 0.117692046 -0.119888715 0.2624827
38205 0.6907043 -0.32263166 0.46903422 -0.33568344 0.72793645 -0.255266 -0.30269575 0.70708436 0.21041995 0.2303729 0.12319612 -0.15476443 0.32152808 0.036082912 -0.07673644 0.35597372 0.19006847 -0.24883744 -0.19818106 -0.43896896 0.060215686 0.121085234 -0.120378464 -0.085134 3.5808396e-05 -0.29980904 0.38857058 -0.0036141572 0.6066718 -0.5365856 0.27179652 -0.058397204 0.55890733 -0.26838776 0.0629726 0.16884083 0.68275774 -0.7980787 -0.13951154 0.039707053 -0.124865405 0.11707447 -0.51509774 0.13041899 -0.3305497 -0.31946054 -0.41436052 -0.52751154 -0.8288167 0.31532463 -0.2116049 -0.32816216 0.50269085 -0.09302004 0.089502916 0.0028813002 0.11189148 0.11279087 -0.682412 -0.017038554 0.09733947 -0.18488768 0.092265494 0.16464897 -0.6468522 0.19347861 -0.8799021 -0.15411595 -0.07482336 0.33650059 0.16008797 0.5628639 0.21245793 -0.07398922 -0.3912645 0.31425515 0.24702415 0.3655834 -0.20608683 -0.10947122 0.4017383 -0.13449499 -0.45482755 0.24853109 -0.30012405 0.054098364 0.065252505 -0.3090235 0.5468976 0.078858554 0.090676226 -0.1463747 -0.10744938 0.8675454 -0.12982333 0.32066423 -0.5341131 -0.58154863 0.2181775 -0.4995151
10177 0.52273005 0.38801637 -0.10180903 -0.06527907 -0.53185266 -0.5018947 -0.45589498 0.092658475 -0.039893996 -0.43200833 0.16706412 0.11041004 0.6171065 -0.3743693 -0.14217854 0.06918057 -0.5161878 -0.65159845 0.6953429 -0.18537456 0.30729252 -0.29965922 -0.38837272 -0.3729989 0.11907811 -0.32747254 -0.3051396 0.70332694 -0.45603743 0.3525715 0.41261408 0.0030709147 0.036909387 -0.22602697 0.39775407 0.42982018 0.45351496 -0.19863158 -0.2582916 0.32801947 0.09642761 -0.3171947 0.6451395 -0.16944352 -0.28117245 -0.27848738 0.33183476 0.22991191 0.19985951 -0.038550373 -0.11264957 0.6797653 0.1106826 0.106696084 0.53209406 0.4916732 -0.1489863 0.12763292 0.2628125 -0.33084172 0.3621921 -0.42156482 -0.0894024 0.12481443 -0.41581252 0.21149567 -0.52347255 -0.32488847 0.8421443 0.5576642 0.029103728 0.26726162 -0.26404443 -0.085324444 0.1342949 -0.019236581 -0.06277701 -0.21026666 0.119155146 0.25735763 -0.012392168 0.5654291 0.08160973 1.3197489 -0.52152234 0.08723217 0.31280443 0.8406681 0.30791625 -0.014443611 -0.1268789 -0.1945987 -0.79671985 -0.55022275 -0.5003888 -0.095796116 -0.4863446 -0.032758404 0.32546437 0.24758282
65074 -1.0205867 -0.024324445 0.5615843 0.27274847 -0.8169765 -0.098659314 0.25403923 0.83875614 0.38137338 0.05240426 0.317439 -0.6865172 0.5921098 -1.165032 -0.44123584 0.060055878 0.39985186 -0.02135362 -0.022280954 -0.3468664 1.4271938 0.5825788 0.1260198 -0.42469153 0.3302493 -0.61830354 -0.6766044 0.5105752 0.028773848 -0.41633716 0.629793 0.23420307 0.3860408 0.2207872 0.8108283 -0.27524006 0.17345217 0.45669448 -1.1661934 -0.49843583 -1.121781 0.24676158 -0.7688863 0.5585131 -0.044332497 -0.0679124 -0.2904609 -0.19644538 -0.384219 -0.2653897 0.7770865 -0.07523723 0.39893374 -0.30872837 -0.38849193 -0.3123818 -0.5096037 0.29575437 -0.00047234807 0.7413537 0.28231433 0.7418624 0.34011403 1.1195428 0.0142777 0.7927918 -0.5704891 -0.23848403 -0.15877602 0.11129841 -0.1794258 0.6794568 0.58070964 0.2614431 0.15241252 0.23088633 -0.15307538 -0.36859444 0.59069973 0.57488275 0.5894569 0.352374 -0.2512083 -0.3627302 -1.4026852 0.20467491 0.18517879 0.14368878 0.4360537 0.17192283 0.2965162 -0.42829686 -0.3457131 -0.31216383 -0.9221159 -0.81396437 -0.45001832 0.4736993 -0.48137003 -1.2777151
17476 -0.21477203 0.19598727 0.4470661 -0.67715997 0.7762857 -0.19250928 -0.10993232 0.321031 -0.5694541 -0.15800889 0.06615509 0.07918123 -0.21517046 0.10929071 0.06478548 0.18977492 0.097072944 -0.4544592 0.63693213 -0.5576763 0.08951555 0.7968687 -0.053392164 0.09546419 -0.3822819 -0.75226545 -0.5678021 0.3530534 -0.2698319 0.1306416 -0.46118498 -0.38128883 0.6159461 0.4888225 0.11313823 0.09558732 0.8141999 -0.4747432 -0.26083308 0.28956097 -0.67088157 0.23204373 0.6714856 0.517467 0.121921234 -0.21176134 -0.58291376 -0.3532937 -0.08314548 0.14958571 -0.17491485 0.097192965 0.70338076 -0.7365658 -0.07579625 -0.3495227 0.23868425 -0.52648854 -0.5580377 -0.1906302 0.54716736 -0.6019318 0.390415 0.74390984 -0.059240457 -0.2773007 -0.7547293 -0.08924878 0.18717547 0.3371849 0.16014001 0.44505525 0.46707186 0.26202637 -0.17512172 -0.086148 0.2794431 0.5080172 -0.2264828 0.44641185 -0.12189638 0.040384002 0.3453585 -0.113831975 0.076530375 -0.09633411 -0.32918617 -0.20419611 -0.3335753 -0.4449127 0.3761533 0.11980014 0.35808617 0.19481659 0.89139754 0.23412512 -0.03415794 -0.41011325 0.001199824 0.10724246
2654 -0.31951737 0.44936025 -0.16822062 -0.3453958 0.69801974 -0.6493994 -0.45843533 0.6229307 0.45690173 -0.8508246 0.15630668 0.577786 0.24226978 -0.3903782 0.2541902 -0.2015459 -0.20531438 0.45139912 1.0208623 -0.23118185 -0.16886137 -0.6620745 -0.048504803 0.38994834 -0.31238106 -1.0275606 0.10210123 -0.3704356 -0.21167469 0.08671016 0.18448888 0.112296894 -0.10981585 -0.4783305 0.50006366 0.7332546 -0.16589226 -0.04610001 0.20155355 -0.1855609 0.06318423 -0.8730973 -0.4323625 0.23058008 0.42495725 -0.47383115 -0.44192043 0.44207639 -0.20081832 -0.10662155 0.15870774 -0.30761138 0.38189784 0.007887962 0.20183967 -0.41470483 -0.19844356 -0.030147245 0.05197949 -0.5795017 -0.09415041 0.29183283 0.08953098 0.36384138 0.8569016 -0.40077057 -0.33212358 -0.3121964 0.6524803 -0.6407385 -0.16977279 -0.54388285 0.7896798 0.03773715 -0.24389598 0.3965277 -0.0069151158 -0.6019007 0.40748084 0.6494664 0.28483063 -0.22322616 0.5592756 0.87289506 0.035621554 -0.1044571 0.3358397 -0.02118689 0.20285442 0.53056335 -0.30429822 -0.34939986 -0.7087239 0.36603945 0.12669861 0.13941367 -0.09639564 -0.12517145 -0.047879137 -0.55055606
5086 -0.50797045 -0.22541381 -0.25065702 0.4382727 0.039070684 -0.14420216 -0.02741755 0.45212984 0.46352747 -0.116581894 0.030010825 -0.9592577 0.43757948 0.10248429 -0.4135945 -1.0182434 1.3219875 -0.1159224 0.42970258 0.45951554 0.048438877 0.08223523 0.20220315 0.7245784 -0.61042875 -0.45532346 0.29786897 -0.6270713 -0.5613899 -0.5251948 0.5130923 -0.19839881 0.91963696 -0.8541113 0.2579545 -0.19851844 -0.2189882 -0.8773385 -0.9260482 0.14783014 -0.8029065 -0.24555558 -0.9072351 -0.3472999 -0.36802948 -0.17498294 0.18575281 -0.12344818 -0.53500444 -0.35048983 0.15147395 -0.08779347 0.13409975 -0.8643186 0.6105949 -0.40907037 0.6666478 -0.08268511 0.65965873 -0.44343638 0.027326943 -0.064930156 -0.032280505 -0.26214784 0.11481123 0.0766883 -0.59171635 -0.6682653 0.14370696 0.092064016 -0.21447131 -0.98150986 0.33124238 -0.0031999487 0.112666704 -0.04712574 0.058404587 -0.044267677 0.22080094 0.17445706 0.59344816 -0.33122572 0.6585966 0.46256977 -1.0876122 -0.1541871 -0.5812497 0.4542581 -0.41570622 -0.4026824 1.128824 -0.18036838 -0.0351827 -0.22409233 -0.22458367 0.4400987 0.07343225 -0.60597444 -0.26538545 -0.3071409
153063 0.06257563 0.012125856 -0.25440952 0.25999856 0.25279626 -0.29610738 0.22710568 0.3488138 0.22570327 0.5567592 0.30904397 -1.6174951 0.030150311 0.04060241 0.32930195 0.33175045 0.6395107 0.23294462 0.25880682 0.41250637 -0.5467296 -0.7559921 0.033971082 0.21297975 0.7149123 -0.53876984 -0.46948585 -0.25395915 -0.8189893 -0.1366309 0.26642376 -0.105009854 0.9373451 0.2559922 -0.054967087 0.42736363 0.24533051 -0.8869459 -0.67113185 -0.3624465 -1.2947819 0.58294654 -0.6080583 -0.20562543 0.6492731 -0.5355026 0.31038454 0.14171976 -0.6986647 -0.43261185 0.8569163 -0.20275584 -0.23670428 -1.2521594 -0.22282042 -0.8596804 0.2955419 0.18431059 0.48440194 -0.17061158 0.24829292 -0.5594622 0.18990926 -0.4199494 -0.1422381 0.22601312 -0.048681717 -0.5989189 2.2207096 -0.22078401 -0.29891735 -0.7099136 -0.46302265 -0.012539827 0.29954833 0.30012777 0.4409926 -0.94256276 0.7781522 -0.051075935 -0.002730446 0.7092021 0.08867465 0.12427954 -0.96900356 0.69766366 0.076675855 0.31951097 -0.21944432 -0.07005014 1.5242428 -0.40993416 -0.31974536 -0.4783404 0.17454429 0.05931804 0.8332469 -0.40491366 -0.33730912 -0.35060593
22229 0.32790908 0.43636677 -0.4282259 -0.6947112 0.69773084 -0.47526115 -0.8721878 0.6096249 -0.5052698 -0.56907916 0.2647066 0.44670886 -0.46322104 -0.6858201 -0.07710282 -0.29025197 0.67614734 0.4258477 0.41987827 -0.5362327 0.05673459 0.28534517 0.19531445 -0.48288235 -0.16775614 -0.44157106 0.4994136 -0.03269042 -0.23367265 -0.1410731 0.48693594 0.69420826 0.5361398 -0.37593338 0.022792045 0.10033717 0.15973681 -0.7321417 0.17726052 -0.049202748 -0.2081156 0.8502785 0.23769134 0.50242996 0.26383764 0.035286054 -0.10414533 -0.11012148 -0.42089853 -0.61750585 0.45840237 0.13958295 -0.28738707 -0.5883184 0.19969317 -0.0054551135 0.27430436 -0.22528712 0.1153278 -0.10959966 -0.16470584 -0.25464544 0.09977075 -0.04908703 -0.45743766 0.058537185 -0.46104774 0.107973166 -0.34892967 0.43505347 0.41712338 0.6145017 -0.2669103 -0.00020993399 -0.7235073 -0.08735991 -0.5372867 -0.2636548 0.09208621 -0.61370087 0.794542 0.7683903 -1.1320572 0.17213328 -0.6488672 0.13103098 -0.23037672 -0.1787095 0.53350717 0.06826282 0.5197245 -0.69462484 -0.193232 0.79585075 0.39006343 0.5867531 -0.35683295 0.07525352 0.5638681 -0.35550657
31489 -0.22362652 0.052719526 0.24181156 -0.62107515 -0.24768837 0.4259825 -0.39799133 0.62140626 -0.45005274 -0.17168564 0.38345876 -0.9109705 -0.9169106 -0.29560307 0.42382097 0.102561265 -0.472253 0.20994143 0.11532758 -1.1127036 0.21396053 0.08872906 1.1309814 -0.7169577 -0.38684216 0.53026396 0.4162706 -0.7268142 -0.949661 -0.1771503 1.3584169 -0.612904 -0.7031256 -0.7187446 1.0739496 -0.7021747 1.2540556 0.036801845 -0.17373513 -0.6317 -0.3780431 0.30125993 0.23674124 0.18428892 -0.41304743 -0.18122089 -0.40021518 0.59622276 -0.22042643 -1.0460205 0.57571036 0.08893537 -0.30535373 -0.9391395 -0.08614378 -0.2247138 0.2887561 -0.34212443 -0.09950585 -0.8180156 -0.8455612 -0.045991212 -0.8860731 0.42567644 -0.019522531 -0.36295733 -0.72934103 -0.39030403 1.0702485 -0.57835734 0.26422673 -0.2000606 1.0587952 0.4107537 -0.38545385 -0.0359912 0.3149438 0.22866869 0.70233786 -0.2803116 0.45731547 0.10764568 -0.014602961 -0.13175586 -0.78439736 0.39616424 0.3380255 -0.26510337 -0.16340081 0.4753717 1.1223981 0.28866127 0.27683586 -0.16205269 0.2309182 0.017665578 0.38385576 -0.15209325 0.49141908 -0.43200773
6910 -0.73429924 0.04515515 -0.48431364 -0.2785893 0.2233112 -0.14241917 -0.516871 0.051769465 -0.072138846 0.4310042 0.24311186 0.23529065 -0.77656204 -0.2572384 0.99398047 0.7033433 -0.18319309 -0.021646323 -0.038336884 -0.093029164 0.16635464 -0.0008548392 -0.44246542 0.2530842 -0.92515326 -0.3664521 -0.34749496 -0.2821856 -0.3987497 0.44726402 -0.053387415 -0.92111766 0.29114744 -0.18967375 0.39198822 -0.14862117 0.15966725 -0.43713084 -0.2452213 -0.8435519 0.2916106 0.73570657 -0.267381 -0.069705635 0.010955162 -0.43459046 -0.3515839 0.9448365 -0.022855148 -0.26988328 0.64436924 -0.37468478 -0.5044633 -0.7376193 0.36094424 0.40304136 0.3905712 0.15715288 -0.26955584 -0.38191384 -0.063717715 -0.042782646 -0.5812344 0.83759665 -0.09935439 -0.31381002 -0.12272455 0.06959532 1.1510135 -0.27911067 0.6848272 0.11160355 1.5170187 0.42745644 0.1035191 0.3499866 -0.28656635 -0.42089847 0.89584684 -0.5078944 1.017262 0.006450379 -0.236645 0.30273706 -0.468382 0.06524137 0.56193644 0.42980567 0.41098636 -0.30165714 1.4431447 0.10871592 -0.3735868 -0.5318503 -0.36277008 -0.6327674 0.60817325 -0.26448974 0.48232484 0.11935232
10183 -0.03741039 0.51764107 -0.32695284 0.06646861 -0.32283127 -0.5047883 0.074738756 0.24105918 -0.57705265 0.83784413 -0.87835085 -0.38302413 -0.49697238 -0.5710345 -0.104622096 0.25121588 0.8785526 -0.25550023 0.014821243 0.0035426416 -0.31290537 0.35731325 0.34707004 -0.3017472 0.08648389 -0.48310652 -0.5765239 0.25340408 -0.30919483 -0.18421905 -0.006656438 0.31234553 -0.24188942 0.33978638 0.23785926 0.022760706 0.13336115 -0.839683 0.15082097 -0.92101073 -0.40533707 -0.37226826 0.30326754 0.58588684 0.35857865 -0.049144138 -0.1525838 -0.010839049 0.72094816 -0.003551006 -0.12131724 0.23690213 0.78773785 0.03566777 0.42591143 -0.23791662 0.2683274 -0.20687716 -1.1303693 0.7140604 -0.21515502 0.083293304 -0.5692813 0.31248 0.45218676 0.24372005 -0.6119056 0.23493366 -0.025149671 -0.52819383 0.58598334 0.15725194 0.08504982 0.60454 -0.412533 0.11732241 -0.69482064 0.2725822 -0.228184 0.60992175 -0.26693514 -0.45130306 0.6680421 0.014395734 -0.5146339 0.73655784 0.53874236 -0.5865429 0.45913395 -0.06864338 0.29745945 0.5692 -0.53920877 -0.0765979 0.043932237 0.76970273 -0.11616179 -0.73446757 0.75298834 -0.08353508
6913 -0.2820285 -0.4536315 0.3404881 -0.27361676 0.08121513 0.33759904 -0.016987545 0.32091552 0.36298823 0.75933045 0.32117072 -0.33065447 0.018422192 -0.74361414 0.6381714 -0.025006639 -0.085918 0.2774603 -0.4843551 0.41558787 0.38469708 -0.10213749 -0.4575779 -0.19021739 -0.6504345 -0.5776746 0.59925586 0.21882093 -0.30442125 0.77643883 0.46261916 -0.5014707 0.20745048 0.0054911342 0.25078395 0.21758088 -0.10521231 -0.17743735 -0.13176285 -0.28468126 0.5865122 -0.31333956 -0.28123555 0.5027552 0.8274867 0.11376551 0.4338937 0.7738916 -0.1807208 -0.12097115 -0.0710313 0.5092768 0.52041805 -0.5726216 0.2273429 0.22345044 -0.26663512 0.5610605 0.077101514 -0.5825868 0.19853505 -0.13231523 -0.14145812 0.80680597 0.07553661 0.566687 0.6731811 -0.6754017 0.60112 -0.4849803 0.47166362 0.529737 0.42590255 0.89390093 -0.8694851 0.25930625 0.28625053 -0.8436172 0.09510898 0.12286421 1.0501153 0.15315662 0.24311264 0.4110759 -0.38243908 -0.061144955 0.113870196 0.18745115 0.5998262 -0.34514534 1.4022264 0.41970378 -0.64849347 -0.73776543 0.16513342 -0.008992599 -0.36656275 -0.13141981 0.49270803 -0.15461525
1956 0.54159564 -0.7424428 -0.027638795 0.16137344 0.12637883 -0.1150452 0.11857926 0.5911911 0.45459652 0.16545805 -0.33173642 -0.27570137 0.23338707 -0.3042844 0.21683155 -0.035088066 -0.2977475 0.15311289 0.47137547 0.30127093 -0.2233688 -0.19237411 0.0964547 -0.48422208 -0.09289722 -0.35527095 0.058432426 0.20938931 0.15949465 0.019895783 0.26254082 0.17488189 0.13547896 0.07644399 0.3248017 -0.098916546 -0.28061214 -0.6805306 0.68248487 -0.057546377 -0.5179604 -0.12155911 0.096538454 0.42392486 0.06726222 0.526036 -0.15019368 -0.59009176 -0.6539659 -0.7044206 0.03794158 0.14626305 -0.3224598 0.13883024 0.5958642 -0.2140667 0.002084532 -0.27140674 0.0115000075 0.23169202 0.019463483 0.7743729 -0.29018342 -0.09052858 -0.31529394 0.20509885 -0.7666164 -0.05701275 0.39519712 -0.31437385 -0.6771555 0.571547 0.85038644 0.7560079 0.2244798 -0.16593213 -0.40920106 0.1381976 -0.21719784 -0.24607441 0.6242049 -0.15503642 -0.4036168 0.13891637 0.19684348 0.47394493 0.105440736 0.4335082 0.26141185 0.5372957 0.017412148 -0.27570754 -0.5745726 -0.30543175 0.5680914 0.18804534 -0.15004534 -1.0590338 -0.18803167 -0.73765993
46491 -0.8680464 0.4732821 -0.14173895 -0.23751122 0.6035837 -0.5139104 -0.20838891 0.40867427 -0.031004807 -0.030548466 -0.15723133 0.62597585 0.2110322 0.05399653 -0.15648219 -0.29939213 -0.06527343 -0.107120745 0.052224003 0.24457258 -0.29991913 -0.8032787 -0.48999947 -0.45265517 0.6709744 -0.87555265 0.04499257 0.03184552 0.15497129 -0.15465523 0.00010989896 -0.015340445 -0.22785059 -0.55724335 0.724546 0.41602296 -0.35553062 0.16331661 -0.30002946 -0.035793006 -0.29464537 -0.41917965 0.34946218 0.25320166 -0.60384554 0.2782296 0.3889761 -0.0840982 0.5630009 0.1703742 0.453035 -0.13646036 -0.29344597 -0.5559451 0.50455964 -0.49826765 0.6024683 0.648953 -0.29116383 -0.9754446 -0.5484323 0.1361507 -0.036261264 -0.097547136 0.12104838 0.15868491 -1.1396279 -0.042023882 0.2821233 -0.36300975 -0.26777622 -0.18458098 0.34572837 0.20711836 -0.08154913 0.71221316 -0.16430396 1.2143037 -0.59200925 0.47538382 -0.05470998 0.3606008 0.07711947 0.4293446 -0.014591126 -0.1379473 0.79928243 0.16189256 -0.45773312 0.67438585 0.4230161 -0.77844524 -0.035572793 0.27563372 0.40792558 -0.673251 -0.5164265 -0.23644322 0.98750454 -0.24390095
287787 0.11954236 -0.23297635 -0.0021148329 -0.011472775 -0.08434145 0.042441905 -0.54072565 1.1039957 -0.42451277 -0.46729523 0.2834428 0.08683779 0.04695012 -0.29626116 0.25278702 -0.033522174 -0.25635535 -0.008410524 -0.2189539 -0.16206388 -0.15944996 -0.29652682 -0.53319985 0.12599988 0.36143318 -0.66534615 -0.060866933 0.04167771 0.13778533 -0.7196566 -0.40030336 0.3398912 0.35026056 -0.093651295 -0.13606851 0.093199536 0.35829896 -0.46258742 0.40600768 -0.047921065 -0.19771843 -0.15477097 -0.50016207 0.7493565 -0.09324552 0.19302459 -0.6900966 0.27053827 -0.20724851 -0.11603363 0.6203899 -0.04036645 -0.37623316 -0.06000571 0.26870593 0.015952643 -0.21121933 -9.94664e-05 -0.2370566 0.4260752 -0.23721424 -0.055758517 -0.31696746 -0.1312836 -0.321406 0.30292276 -0.60561556 -0.093307264 -0.047148142 -0.087391384 -0.30699226 1.0272788 -0.3157184 0.60068715 0.14120166 -0.096795686 0.44314203 -0.2622307 -0.18108454 -0.30008826 0.37155402 -0.11911524 0.03847485 0.20452054 0.068133526 0.57914233 0.897537 0.2864436 0.073687315 -0.13008426 0.0006708623 -0.64829296 -0.74176633 0.43166906 -0.15026657 0.9927699 -0.20655553 -0.47205096 0.12624395 0.057020526
6209 0.03226278 -0.01285213 0.22017062 0.03576846 0.14697534 -0.3842801 -0.29591024 0.6485879 -0.22039309 0.19986637 1.3812026 -0.2393853 -0.26332912 -0.031079985 0.33102727 0.1777851 -0.3166597 0.20106444 -0.6477868 0.025601098 -0.17424682 0.38547644 -0.21335413 0.016678976 -0.50862694 0.33632377 -0.6304568 -0.24379459 -0.30069184 0.12884918 -0.38192976 -0.6472246 0.1860048 0.27767947 -0.5096404 0.6690797 -0.19058579 -1.1220528 -0.49310488 0.44274148 0.22552057 -0.39056584 -0.009882224 0.019114835 -0.12529597 -0.061815593 -0.6465291 -0.036723774 0.12524806 0.44147822 0.36523452 -0.18467495 0.06328376 0.4005807 0.24075928 -0.38521865 -0.111803345 -0.71353936 -0.5638732 0.08572929 0.10652073 0.005031665 0.46028763 0.5644491 -0.08344258 0.39584792 0.16911764 -0.5795606 0.54224914 0.144681 -0.31536704 -0.24423131 -0.16769531 0.18239988 0.4613855 -0.28690708 -0.14242607 0.28689995 -0.18785037 0.35197863 0.82579273 -0.0929462 -0.20064756 -0.30584294 -0.9646599 0.6800037 -0.5780138 0.16400157 0.55197024 0.5014893 0.6747066 -0.2564173 -0.01889467 -0.32335603 0.40436292 -0.12363933 0.09435158 0.17585328 0.48458502 0.21912272
20601 0.005918201 0.2566989 0.46114293 -0.43210527 -0.490988 -0.99042153 -0.8513786 0.7181316 -0.06632547 -0.21540262 0.12559947 -0.19096762 -0.11858173 -0.23385426 -0.21205096 -0.52532446 0.022412254 -0.5053893 0.5745588 -0.5057396 0.25929794 -0.27093455 -0.21619894 -0.4822792 -0.18117988 -1.0538331 -0.6052899 0.12301039 0.118988946 -0.4871342 0.33219662 -0.09159599 -0.31453758 -0.36272657 0.43856934 -0.27628085 0.43243098 -0.6096836 -0.3733912 -0.22754788 -0.18114766 -0.3334918 0.015248257 -0.305138 -0.27287778 -0.80668366 0.049069315 0.7099902 0.0029039555 -0.6535392 -0.5793667 0.47708112 0.24427944 0.34290272 0.3021428 0.047971793 -0.06138266 0.22329015 0.15226878 -0.021599934 0.6410775 -0.34444073 0.039663903 0.067822196 -0.5843189 1.0930381 -0.49760428 -0.7114182 0.9232649 0.45526275 0.7107028 0.14633863 -0.16972104 0.3925975 0.29544532 -0.010782885 -0.02891768 0.45961285 0.27797213 0.32385296 -0.0002417145 0.8613802 -0.06486698 0.5512513 -0.107934766 -0.10059395 -0.18734443 1.3824719 0.20961653 0.6893935 -0.7398617 0.1295257 -0.6712129 -0.46253657 -0.74711496 0.15017529 -0.04281353 -0.15107661 0.85564214 0.6694229
79809 -0.42925277 0.31696162 0.02938195 0.35917613 0.5787301 -0.81254506 -0.24618064 -0.15707128 0.5021973 -0.14408328 0.42404103 -0.50249404 0.18696678 -0.019191978 0.26666448 -0.83967626 0.67461765 0.26734358 0.5727612 -0.14280257 -0.49369752 0.48784846 -0.6698662 0.4574208 -0.16640948 -0.10334763 0.077342845 0.08212779 -0.4738281 -0.29093558 0.27725834 -0.88972276 0.19356404 -0.62160134 0.37200186 0.011909352 -0.20797333 -0.6170413 -0.46013096 -0.14847529 -0.79998404 -0.16344517 -0.5911127 -0.17412652 0.024519863 -0.03737939 -0.2877715 -0.47237495 -0.05296526 -0.69527 -0.1506119 0.0077337255 -0.1881527 -0.87678105 -0.011051383 -0.15665345 -0.059216473 -0.11480002 1.0552999 0.3019923 -0.00081993104 0.18089364 -0.38974857 0.023842424 0.123590484 0.80782986 -0.47761574 0.15351744 0.38154274 0.0037145636 -0.54320216 -0.75614035 -0.21313314 -0.1842796 -0.42788604 0.73312116 -0.3190589 0.2753022 -0.09901075 0.06137879 0.4740598 -0.6000953 0.902926 0.14016086 -0.65766186 0.10968292 -0.12165992 1.0904794 -0.10087226 -0.5099763 0.20675181 -0.15439582 -0.094711155 -0.020330384 -0.10690459 0.47932976 -0.9572007 -0.483294 -0.26682097 0.38832873
84021 -0.21345533 0.54503113 0.3052667 0.33618852 0.055586003 -0.4741638 0.2452159 1.1544493 -0.77184284 -0.289048 0.7797943 -0.07633729 -0.010654154 -0.22898586 -0.015832875 -0.07906483 -0.22376642 0.32098448 -0.0381154 0.36419174 0.1519636 -0.13578045 -0.21696687 -0.29192922 -0.01904112 -0.43560526 0.3579153 0.4451806 0.31320092 -0.31339365 -0.64765745 -0.1680278 -0.27495593 -0.15496698 0.17813314 -0.09622221 0.1466528 -0.38803697 0.61175275 -0.36497667 -0.46750322 -0.61936146 -0.13960563 0.11383491 0.23714244 -0.020755822 -0.431947 0.10482347 -0.2717281 -0.32278964 0.05558971 0.45493552 0.09335867 -0.5479062 0.5630624 0.49734294 -0.40885904 -0.30309212 -0.015286221 -0.15119107 0.20240052 0.24309467 -0.042433906 0.41381437 -0.6378589 0.024876406 -0.016030464 -0.5010649 0.14688405 -0.5368486 0.068844765 0.22003005 -0.43963695 -0.17286323 0.12397781 -0.15745562 -0.053766552 -0.11153895 -0.45893028 0.26018545 0.13652746 0.26164877 -0.2077156 -0.4882572 -0.061956815 0.18913157 0.36320087 0.20353249 0.29178014 0.2279421 0.33015618 -0.18147933 -0.47356677 0.99968547 -0.52023065 0.90555453 -0.26833695 -0.5976835 0.22694123 -0.27514142
36140 -0.06440149 0.7573428 0.18974778 -0.28984454 0.5115219 -0.5074587 0.4022046 0.22743264 -0.30302817 -0.3126304 0.5069541 -0.011244489 0.4807549 -0.07449364 0.39578086 -0.029294066 0.13714355 0.026332904 -0.17400798 -0.22285004 -0.1553759 0.24983102 0.31839284 -0.675161 0.21548729 -0.541366 0.5023656 -0.19950938 0.19215196 0.064063385 0.36878788 -0.0136212455 0.11528584 -0.27252105 0.48072958 0.18626456 0.015042082 -0.04736758 -0.06514098 -0.4293801 -0.09047412 -0.49838194 -0.08275404 0.84896636 -0.2362488 -1.2251542 0.42984712 0.16486602 0.43570757 -0.4033531 0.18859513 -0.46804246 0.4059384 0.46877864 0.21224964 0.22956644 -0.22028257 -0.041558843 0.2101467 -0.16443312 -0.09143689 0.95496553 0.23881419 0.4712775 0.9732194 0.4157497 -0.3138365 -0.36931205 0.3704741 0.24355593 -0.40337583 0.27022392 -0.25766557 0.043559045 -0.2046635 0.89454246 0.07663201 0.4048077 -0.15559937 -0.14203627 0.5313619 -0.015671566 0.61144453 0.5907399 0.009525591 0.33431703 0.31684637 0.25012058 -0.35665798 0.32331243 0.09130249 -0.41104496 -0.1503823 0.0391476 -0.0384729 -0.2357509 0.30894783 -0.42550835 0.4544686 0.46157187
10798 -0.2642205 0.7160372 -0.12635984 0.15624566 -0.50889444 -0.5565556 0.04126742 0.5146239 -0.5737506 0.4272243 -0.59304893 -0.63476026 0.07537153 -0.20429571 0.119591706 0.13945757 0.48561245 0.51184285 0.29844025 -0.89711016 -0.3463945 0.43734437 -0.008007892 -0.25147644 -0.092897885 -0.10936594 0.13044491 0.45032123 0.045414235 0.6474179 0.14138784 0.19514617 0.23271357 0.29176334 0.0102618765 -0.016372843 0.72598916 -0.47636417 0.28970906 0.19021739 -0.42439237 -0.03479606 0.12097626 0.64008784 -0.2635659 0.23649667 -0.3625013 -0.24493141 0.8614562 -0.16974787 -0.098766565 0.14525582 0.49411777 -0.17682911 0.33419847 -0.4106756 0.420425 0.095273055 -0.8585783 0.09086427 -0.00053640973 -0.24935828 -0.9220587 -0.6063293 0.15926924 0.51133764 -0.5685262 -0.2041037 0.030237027 -0.42971274 0.02905073 0.051077876 -0.061281722 0.47706676 0.14550208 -0.03414627 -0.32747316 0.49284995 0.07274116 0.58572656 0.48349977 -0.26051646 0.6419164 0.04654504 -0.4760015 0.27008897 0.07053809 -0.6227479 0.18656307 0.23454072 0.23630239 0.14703742 -0.31673127 -0.44585294 0.1634003 0.08026183 0.07087541 -0.37169504 0.5064338 0.2719631
108047 0.3050288 0.07550798 0.009843841 0.23428647 0.7203636 0.3411675 -0.42508778 0.23560785 -0.67266405 -0.24988113 -0.24896355 0.21885586 -0.16908893 -0.31171104 0.35936797 0.2932903 -0.03871099 -0.16499974 0.65995014 -0.013124669 0.49464348 0.14714801 -0.0024773602 -0.6524265 -0.17113255 -0.086984344 0.48809633 -0.03704401 0.03064156 -0.36113152 0.17359401 0.28802627 1.0421718 -0.038918287 0.28140047 -0.40594777 0.49091575 -0.5962793 -0.38904768 0.22650579 -0.43543944 0.11151729 -0.1147148 0.17328998 -0.19114015 -0.5054431 -0.9645244 0.04949046 -0.42718884 0.086100556 -0.124702826 -0.3566471 0.15036617 0.41516596 0.6464131 -0.24817933 -0.28128928 0.15145127 -0.5094895 -0.16782615 0.29793897 -0.34351814 0.11665442 -0.45359865 -1.0270543 0.33150762 -0.76356065 -0.5359918 0.2027911 0.35685927 0.047685537 0.44012156 -0.24810275 -0.240228 -0.45411113 -0.26004505 -0.042029805 0.10881354 0.01871652 -0.10963657 0.63810825 0.07195392 -0.28869867 0.0542382 -0.38435373 0.5302993 0.47308022 -0.22246039 0.1637225 0.27718124 -0.28235584 -0.12146223 -0.5202513 1.5625062 -0.3512656 0.76997465 -0.23540932 -0.266275 0.5384887 -0.42605132
503883 0.02328055 -0.39917606 0.4211227 -0.13110495 0.4265163 -0.2640756 -0.33755285 1.1865124 -0.5922727 -0.35101435 0.82127 -0.42039362 0.34551448 -0.52202106 0.5508404 -0.5079445 -0.69750214 0.02075485 0.44563186 0.047296178 -0.30788338 -0.01497173 -0.30509725 -0.020547943 0.71893287 -0.49593762 0.05389449 0.22141325 -0.09447082 -0.70792747 0.116230786 -0.09921828 0.2154659 0.07776969 -0.086496755 0.19323492 0.70827097 -0.3439576 -0.14660323 -0.44414324 -0.19197625 -0.028674414 -0.186558 0.86499566 0.01720971 0.49109203 -0.6345425 0.33513382 -0.3743194 0.019717596 0.6141373 -0.09845405 -0.36244762 0.0034043952 0.45757553 -0.36812797 0.072994836 -0.0011052361 -0.112236865 0.31358722 -0.3812 -0.6158284 -0.6608837 0.03362411 -0.42914343 -0.24170367 -0.86408776 -0.0963553 -0.42343223 -0.07364634 0.22904728 0.76306623 -0.3274078 0.66453505 -0.14124979 0.018238313 0.6225671 -0.2687221 -0.56258047 -0.050034348 0.23179042 -0.57726157 -0.09923521 -0.15508549 0.028725179 0.6710815 0.6318685 0.14478374 0.29800564 0.037042774 0.08268692 -0.19141111 -0.58547795 0.72847354 -0.12210441 0.5581179 -0.30277008 0.02050221 -0.1305357 0.2584301
3233 -0.23412675 0.861214 0.21910472 -0.547731 0.14870031 -0.33300126 0.25380382 0.929472 0.71206254 0.10985225 0.48592758 -0.63330376 -0.19911799 -0.1753229 -0.11384425 0.03402057 -0.02170299 0.3904803 0.73918015 -0.4216732 -0.1764314 -0.36112988 -0.24368627 -0.13866164 -0.08889021 -0.28690377 0.100146174 -0.32073423 -0.04251839 0.8758838 0.06675423 -0.1836208 0.23295362 -0.21586856 0.06510777 0.36881557 0.28629968 -0.3618553 0.38897094 0.6256758 0.22360004 0.15371276 0.29916146 0.29413745 -0.5921281 -0.19174445 -0.032509062 0.2559572 -0.16386653 -1.1198593 0.10981913 -0.054798543 -0.135037 0.5267243 0.30513927 -0.0025986568 -0.007955013 0.79369116 -0.2572772 -0.3108957 -0.028780961 0.51098424 0.14925851 0.31568968 -0.15258701 -0.25480682 -0.37465242 -0.15962984 0.48922992 0.14869614 0.098060116 0.30766898 -0.20590365 0.04667009 0.75992405 0.017070362 -0.50028205 -0.7839557 -0.04495536 0.9802877 0.32866985 -0.18395299 0.5664567 0.48163632 -0.67713445 -0.05902357 0.48630786 -0.15726584 0.10601897 -0.36146003 0.024807233 0.5872384 -0.60726553 0.51889795 -0.09416772 -0.4349844 0.16905501 -0.16105777 -0.21404648 -0.27889153
6163 0.2607745 -0.36702466 -0.9979721 0.015726807 0.008904642 0.12855273 -0.2209974 0.40604764 -0.42971778 -0.081137314 -0.027774142 -0.31023532 0.52951366 -0.63978624 -0.15967306 0.03412038 1.0545324 0.17601514 -0.24531257 0.09641307 0.08544538 0.1464769 -0.1894934 -0.073166065 -0.52349156 -0.16067931 -0.4821818 0.3840872 -0.12944594 0.068280905 0.43827793 -0.10741731 0.07813793 0.12724727 0.08676543 0.7660019 0.44559965 -0.08053116 -0.12171538 -0.091360144 0.07827227 -0.21211083 0.12990037 0.1664592 -0.39280826 -0.6630459 -0.48528743 -0.14128917 -0.04266872 -0.052325632 0.35864723 0.3107353 0.13932341 -0.074649505 -0.33233887 -0.13620993 -0.2375809 -0.28113538 0.10624732 -0.4715912 0.3124287 0.24962373 0.10282454 0.8201 -0.61021966 -0.15703958 -0.31961563 -0.3003343 0.67492324 -0.2516851 0.62873644 0.33317846 -0.44185096 -0.06731663 0.02861588 0.47194597 0.669831 0.5032121 -0.31501296 0.5789692 0.36977848 -0.7558456 -0.03386066 -0.5130424 -0.5424657 0.23022777 -0.2511003 -0.4621957 -0.53238153 0.75452685 0.0060549644 0.17268272 -0.24597761 -0.19363554 0.4331478 0.3576195 -0.2725392 -0.38237885 0.44367504 0.14089474
202639 -0.70355946 -0.2814054 -0.095493704 0.0012001789 0.11755242 0.04369899 0.012632902 0.26705402 0.6425302 0.6198727 -0.46997043 -0.15437676 -0.027533084 0.3046083 0.09318464 -0.016506309 -0.52800983 1.0956436 0.42923096 -0.39571005 -0.025014685 0.16442116 0.084924705 0.18811925 0.40523666 -0.59429723 -0.37875047 -0.58647346 -0.6766821 -0.04945074 0.288813 -0.7303659 0.5949464 -0.38572398 0.6779941 0.14822255 0.71262795 -0.08874563 -0.57234836 0.11467852 0.13776341 -0.49632505 -0.022979006 0.03713803 0.21690448 0.33557352 -0.8415099 -0.19972037 0.21030352 0.20049551 0.2663624 0.24618918 -0.47705737 0.058093045 -0.18832837 -0.0981988 0.37717906 -0.69866586 0.13952906 0.095219664 0.46415946 0.36576018 -0.22681707 0.49191174 -0.52073073 0.37496972 -0.15147895 -0.18376665 0.23887584 0.5534606 0.36216497 -0.18255618 0.31592765 -0.3157403 -0.20996475 0.7505147 0.150063 -0.37028274 -0.26565444 -0.0034589756 -0.15931667 -0.39770448 0.40460074 -0.0660002 -0.0401435 -0.1550304 0.54818463 0.76097465 0.5306134 0.39724177 0.21348204 -0.69190836 0.053699728 -0.028639853 0.2729555 -0.15205868 -0.24273284 0.02440852 0.36590534 0.21354398
12330 0.0063818293 0.38255292 0.058864463 -0.80183905 -0.23187396 -0.27627754 -0.25773445 0.8621417 0.11008278 -0.3279016 0.42409524 0.25627244 0.6534351 0.68656725 -0.16904865 0.038606208 -0.45807293 0.8490406 0.3816248 0.151341 -0.31683856 -0.040213674 -0.14914586 -0.12988874 -0.9921707 -0.32796225 -0.7140798 -0.45811442 -0.5172149 -0.17893277 0.30667526 -0.946162 0.024363576 -0.42727196 0.056674067 0.026591586 0.69144386 0.24058141 0.08394989 -0.057795946 -0.73855674 -0.10195082 -0.29003146 0.19520845 -0.0006501537 -0.76716185 -0.23423727 0.510921 -0.8938184 -0.11047776 -0.06466113 0.3910929 0.14562458 -0.20052157 0.34672865 -0.17379194 -0.07746013 0.0033362575 0.27146748 -0.89725006 -0.4047556 0.20752224 -0.42919984 -0.065897025 1.464442 0.8066738 -0.4068735 -0.18624195 0.5841377 0.2317609 -0.06429054 -0.6915069 -0.18284728 1.1757927 -1.0667918 0.5127559 0.15957823 -0.44579425 -0.3274725 -0.56260943 1.1898731 -0.5976798 0.606226 0.32652378 -0.6103915 -0.07462636 0.14014895 0.18792087 0.7488981 0.06848596 -0.34241918 0.6889906 -0.12305112 0.4483497 0.81919676 0.40889472 -0.24439962 0.13891709 0.9284959 -0.23981422
41714 0.7625175 0.5113382 -0.35142407 -0.2562702 0.74301803 -0.2720246 0.18696642 0.6758849 -0.023822466 0.3133516 0.70552784 -0.023242138 -0.049349986 -0.19595939 -0.073289335 0.1338396 0.16465016 -0.5926216 0.17790647 0.0324221 0.29104796 0.3496698 -0.054012787 0.045065854 0.5950843 -0.23022269 -0.11370564 0.19165397 0.23513891 -0.29688454 -0.19355723 -0.009471604 0.5431273 0.53191185 0.39380768 -0.104263365 0.45873162 -0.5768789 0.7839188 -0.524416 -0.49840906 -0.16626145 -0.25300327 -0.2611513 0.30645594 0.07204557 0.2484437 -0.060219996 -0.24514218 0.042662084 0.2599468 -0.011864659 -0.933418 0.0029405628 0.103386275 -0.25351182 0.12409757 0.10889591 -0.39307645 0.058964357 0.28382903 0.04969618 -0.13108118 0.30066872 -0.25455174 0.17095499 -0.8057136 -0.16562758 -0.17028643 -0.29221475 0.0501134 0.23088047 -0.26347026 0.22362863 -0.8027685 0.39441103 0.35895655 -0.5376495 -0.1637421 0.09741375 0.6737977 -0.11066658 -0.63752365 0.4309449 -0.3982842 -0.32442358 -0.122682154 0.15608923 0.35506725 -0.26419932 0.47695297 -0.9210349 -0.014812621 0.8123597 0.25069466 0.2350651 -0.24155287 -0.5770601 0.37389538 0.14575419
