2708 100
35 0.31558615 -0.29531872 -0.050379332 0.1432192 0.1615139 -0.17677699 -0.10897018 0.6474077 -0.37773487 0.0150093855 0.4536873 0.06323215 -0.048018545 -0.2120959 0.03707454 -0.23004098 -0.07180203 0.13209325 0.09460065 -0.17934045 0.028265161 -0.23165357 -0.22053707 -0.07189951 0.36097884 -0.60172665 0.21989952 0.16663998 0.09439588 -0.30862626 -0.18350686 -0.15062378 0.2187361 0.024401274 0.14877175 -0.0017087026 0.3517872 -0.63779056 0.13369536 -0.0589908 -0.18613058 -0.092767954 -0.14882381 0.07766588 -0.17428696 -0.14357477 -0.058195233 0.23511873 -0.12376139 -0.01091876 0.2124631 0.19562761 -0.41499084 -0.20985231 0.4267603 -0.09568118 -0.057139345 -0.21288197 -0.14586838 -0.0034691445 0.0048227906 0.2653834 -0.16376817 0.12834595 -0.29665306 0.031069463 -0.48792487 -0.09378536 -0.4443966 -0.15359911 0.039886814 0.49139467 -0.02257136 0.041879285 -0.030942472 0.044887178 0.19773519 -0.24067925 -0.1639131 -0.38963854 0.19118686 0.0033407947 -0.39548507 -0.0023768684 -0.13661358 0.12517016 0.2441943 0.13214512 0.43766272 0.088685684 0.094477214 -0.35005826 -0.17735581 0.39487866 0.19127782 0.39025715 -0.15889597 -0.3520474 0.101398565 -0.016713645
